{"encoder.network.0.weight": [[0.5656652450561523, -0.28702324628829956, 0.2931629717350006, 0.03340985253453255, -0.18716061115264893, 0.1607389897108078, 0.12853889167308807, -0.02347305603325367, -0.16175386309623718, -0.11901941150426865, 0.14295122027397156, -0.047514017671346664, -0.007705305702984333], [0.33720266819000244, -0.2342260628938675, 0.09007808566093445, -0.11059365421533585, 0.14481918513774872, 0.009822370484471321, 0.12544214725494385, -0.08457763493061066, 0.0010682041756808758, -0.09443217515945435, -0.02175343967974186, 0.039017852395772934, 0.002633984899148345], [-0.10171221941709518, -0.08328759670257568, 0.21503841876983643, -0.22849836945533752, -0.06820336729288101, 0.05045638233423233, 0.1422521471977234, -0.059909503906965256, -0.07269863039255142, -0.003798115998506546, 0.13597269356250763, -0.1586032509803772, -0.0965021625161171], [-0.045742519199848175, -0.005573484115302563, -0.2925632894039154, 0.3585439920425415, 0.26274946331977844, -0.23581889271736145, 0.022488858550786972, 0.21819642186164856, 0.2000945657491684, -0.04435410723090172, 0.10099402815103531, -0.018325461074709892, 0.007630692794919014], [0.16830554604530334, 0.16858410835266113, 0.13624854385852814, -0.14234180748462677, -0.0599241778254509, 0.19316306710243225, -0.060805369168519974, -0.019919395446777344, 0.040511421859264374, -0.16237092018127441, 0.17461003363132477, -0.07940884679555893, -0.01316425297409296], [-0.0185992494225502, 0.0915837362408638, 0.20944295823574066, -0.26488184928894043, 0.02615928091108799, -0.09006466716527939, -0.06174766272306442, 0.3255578279495239, -0.23912423849105835, 0.2714202105998993, -0.22806312143802643, 0.05307212844491005, 0.0580233559012413], [0.17127865552902222, -0.06182070076465607, 0.06074651703238487, -0.1458866000175476, 0.2827126979827881, -0.13618776202201843, -0.16114327311515808, 0.05230328068137169, 0.1762261837720871, 0.11082115024328232, 0.13357216119766235, -0.1521143764257431, -0.23379820585250854], [0.14347738027572632, 0.2981088161468506, -0.32317879796028137, 0.1961938887834549, -0.045588139444589615, -0.12473871558904648, 0.20403532683849335, -0.1931750625371933, -0.03662611171603203, 0.13023284077644348, 0.13908740878105164, 0.2065378725528717, -0.154045969247818], [0.1670132279396057, -0.2340092808008194, -0.15198935568332672, 0.2634531557559967, -0.20152869820594788, 0.06885624676942825, 0.24120691418647766, -0.09543831646442413, -0.08965746313333511, 0.12824758887290955, -0.17987027764320374, -0.13344523310661316, -0.044759463518857956], [0.10339266806840897, 0.09678038954734802, -0.31563395261764526, -0.011699384078383446, 0.08192440122365952, -0.182822585105896, -0.3309844732284546, 0.1646072119474411, -0.0968019887804985, -0.22487762570381165, 0.0018936219858005643, -0.03520675748586655, -0.1143656000494957], [0.34101465344429016, -0.04752231389284134, 0.25741103291511536, -0.10826360434293747, 0.16346929967403412, -0.018522370606660843, 0.0942680835723877, 0.25233790278434753, 0.13713324069976807, 0.12931258976459503, -0.09247702360153198, 7.213105709524825e-05, 0.17232345044612885], [0.22177433967590332, 0.368720680475235, -0.17505869269371033, 0.06883269548416138, 0.021944154053926468, -0.00889842864125967, 0.15066318213939667, -0.16797690093517303, -0.22317275404930115, -0.13868354260921478, 0.16372555494308472, 0.17181414365768433, 0.026649588719010353], [-0.037627510726451874, 0.07592847943305969, 0.37502411007881165, -0.1618730127811432, 0.27516669034957886, -0.35441717505455017, 0.13245883584022522, -0.021395644173026085, 0.20472708344459534, 0.10263081640005112, 0.21220663189888, -0.023242639377713203, -0.04261048510670662], [0.4001469910144806, 0.18927496671676636, 0.008393630385398865, 0.029785344377160072, -0.040975701063871384, -0.0943400040268898, -0.01768464967608452, -0.06584206968545914, -0.16331514716148376, 0.11693629622459412, -0.07705648988485336, -0.12919579446315765, -0.20198437571525574], [0.4402134120464325, -0.13760003447532654, -0.2967136800289154, 0.09394341707229614, -0.2162003219127655, 0.14666208624839783, -0.03871627897024155, 0.09358524531126022, 0.14812520146369934, -0.006867220625281334, 0.03160793334245682, 0.03597588464617729, -0.08829120546579361], [0.262516587972641, 0.36114662885665894, 0.08622726052999496, -0.0025788401253521442, -0.21492210030555725, 0.07097747921943665, -0.044090934097766876, -0.13588294386863708, 0.20815859735012054, 0.13662977516651154, -0.2127586156129837, -0.07644034922122955, 0.08994139730930328], [-0.09535153955221176, -0.08734958618879318, 0.09218987822532654, -0.21193602681159973, -0.28386548161506653, -0.23775988817214966, 0.029703330248594284, 0.04388294368982315, -0.10632796585559845, -0.14951027929782867, -0.25666648149490356, -0.2746320962905884, -0.03039097785949707], [0.18771949410438538, 0.04764600843191147, -0.010046368464827538, -0.19187267124652863, -0.17554084956645966, -0.04803457111120224, -0.15189845860004425, -0.12012892216444016, 0.039057787507772446, -0.3343941271305084, 0.12563279271125793, -0.20753885805606842, -0.09200765937566757], [0.29100507497787476, 0.18407168984413147, -0.10080665349960327, -0.0625077486038208, 0.05748150497674942, 0.2346455454826355, -0.12112195789813995, 0.06626780331134796, -0.16615073382854462, -0.10377827286720276, -0.1861954629421234, -0.13117441534996033, -0.08108861744403839], [0.3450372815132141, 0.04059380292892456, -0.16777941584587097, 0.19254976511001587, -0.06846947968006134, -0.29314541816711426, 0.14234182238578796, -0.15206758677959442, -0.10379548370838165, 0.03792908042669296, -0.1664799451828003, -0.14573676884174347, 0.13721813261508942], [0.23349221050739288, 0.041119158267974854, 0.02939286269247532, -0.18711669743061066, 0.25312140583992004, 0.035320498049259186, 0.03177783265709877, -0.10598111152648926, 0.1424122005701065, -0.05436210334300995, -0.11846093088388443, -0.02503555826842785, 0.10008807480335236], [0.011149488389492035, 0.03501090407371521, -0.211283877491951, -0.23170694708824158, 0.13208213448524475, 0.10810615867376328, -0.0183981005102396, -0.15956233441829681, -0.17303475737571716, -0.2769427001476288, -0.3163304924964905, -0.1540309190750122, -0.06642594933509827], [0.04852786660194397, -0.07750280946493149, -0.4151886999607086, 0.16986995935440063, -0.1262262463569641, -0.26695317029953003, 0.2731154263019562, 0.10048510879278183, 0.06020979955792427, -0.17890439927577972, 0.05317341536283493, 0.17870844900608063, 0.13191857933998108], [-0.12184226512908936, -0.22660872340202332, -0.04840739071369171, -0.04282085597515106, -0.05031928792595863, -0.025764279067516327, -0.09349887073040009, -0.09643220156431198, 0.010283813811838627, 0.2584710717201233, -0.06678446382284164, 0.27281975746154785, 0.06607388705015182], [-0.005195478908717632, -0.04842045530676842, 0.24227352440357208, -0.11032477766275406, -0.11503271013498306, -0.27053767442703247, 0.05153926834464073, -0.22616970539093018, 0.19908493757247925, -0.07938240468502045, 0.02949860319495201, 0.10004322975873947, -0.23310460150241852], [-0.2296169251203537, -0.2788170278072357, -0.15785838663578033, -0.40000784397125244, 0.2043115198612213, -0.2604694664478302, 0.05712155997753143, -0.06301232427358627, 0.08144884556531906, -0.14558787643909454, 0.029681341722607613, -0.10179213434457779, -0.003746138419955969], [-0.09045109897851944, 0.006990575697273016, -0.14953279495239258, 0.10093004256486893, -0.15141020715236664, 0.017066659405827522, 0.20150180160999298, -0.19225765764713287, -0.15192623436450958, 0.27099186182022095, -0.17537538707256317, 0.08936144411563873, -0.0710904598236084], [0.359260231256485, -0.23263150453567505, 0.16052795946598053, 0.1401365101337433, -0.021185504272580147, -0.11570674926042557, 0.30249127745628357, 0.267147034406662, 0.012360942550003529, -0.043739113956689835, 0.06172375753521919, -0.04811351001262665, -0.1618867665529251], [-0.07373213022947311, -0.2506040036678314, 0.05757179111242294, 0.2093706578016281, 0.2172539234161377, 0.11809937655925751, 0.14423047006130219, 0.22085395455360413, -0.0522303581237793, -0.04320106282830238, -0.042845822870731354, 0.00033146271016448736, -0.04002181440591812], [0.03809741139411926, -0.03482700511813164, 0.01548649463802576, 0.005774030461907387, -0.016179336234927177, -0.17284700274467468, 0.08863534033298492, -0.2267751842737198, 0.09087102115154266, -0.02747752144932747, 0.05442206934094429, 0.14480505883693695, -0.21220612525939941], [-0.16026562452316284, 0.29623252153396606, -0.1840481013059616, -0.22690005600452423, -0.16427187621593475, -0.1335117369890213, 0.11726578325033188, 0.24554920196533203, 0.10258152335882187, -0.0161444079130888, 0.015615335665643215, -0.05467260628938675, 0.13757149875164032], [0.11084570735692978, 0.20162449777126312, -0.021617751568555832, 0.2313014715909958, 0.038139209151268005, 0.1838611215353012, 0.03615226969122887, 0.1232803612947464, -0.0787089541554451, -0.031102197244763374, 0.09870606660842896, 0.06386002898216248, -0.21221931278705597], [-0.21034352481365204, -0.05059109255671501, -0.17393553256988525, 0.16466549038887024, -0.11498130857944489, -0.0009272954775951803, -0.03383518010377884, 0.00168387230951339, -0.16138088703155518, 0.08627676963806152, -0.14933808147907257, 0.10939396172761917, -0.06561650335788727], [0.3609558343887329, -0.3356000483036041, -0.18489094078540802, -0.26548177003860474, 0.14954616129398346, 0.03656262159347534, 0.11271853744983673, -0.10118971019983292, 0.11864238232374191, 0.017649129033088684, 0.15854214131832123, 0.008594403974711895, -0.04705263674259186], [-0.3102109730243683, -0.16501212120056152, -0.015491612255573273, -0.003768164198845625, 0.2350868582725525, 0.14430952072143555, 0.19276036322116852, -0.16611886024475098, 0.057141490280628204, -0.09612949937582016, 0.06587063521146774, 0.07764855027198792, -0.234979048371315], [0.10738404095172882, -0.18759509921073914, 0.3169042468070984, -0.11492902785539627, -0.06228508800268173, -0.07407017797231674, -0.0258279200643301, 0.030227191746234894, -0.28154614567756653, 0.008035232312977314, -0.20125745236873627, -0.03806297481060028, -0.03786159306764603], [-0.06776958703994751, -0.1299624741077423, -0.206556037068367, -0.015191912651062012, 0.3581283390522003, 0.18835076689720154, -0.2917572259902954, -0.28486162424087524, 0.2599261999130249, 0.037296779453754425, -0.09329640865325928, 0.12978270649909973, -0.0011010896414518356], [-0.13742844760417938, 0.25789013504981995, 0.28552237153053284, 0.13246338069438934, 0.03201562166213989, -0.11044932156801224, -0.22127746045589447, 0.08186791092157364, -0.231916144490242, -0.09582998603582382, -0.08130243420600891, -0.04601047933101654, -0.097491055727005], [-0.03552088886499405, 0.026368172839283943, -0.3764118254184723, 0.22816890478134155, -0.2063921093940735, 0.15026836097240448, -0.09695190191268921, 0.0893273577094078, -0.014108042232692242, -0.00805755890905857, -0.17680621147155762, 0.1572772115468979, -0.07154130935668945], [0.22769878804683685, 0.048976872116327286, 0.31727495789527893, 0.23046016693115234, 0.2841900587081909, 0.19998271763324738, 0.11843003332614899, -0.03137480840086937, 0.07013288885354996, -0.011783228255808353, 0.028710201382637024, -0.03281783685088158, -0.1853981465101242], [0.2005123347043991, 0.3493444621562958, 0.4166732728481293, 0.008906050585210323, 0.2518872916698456, -0.27619504928588867, 0.030809855088591576, -0.17931009829044342, -0.031762734055519104, -0.12437058985233307, 0.1270846724510193, -0.01610371097922325, 0.08170793205499649], [0.0673229768872261, -0.3899298906326294, 0.10847394168376923, 0.0771622434258461, -0.1760057657957077, -0.10667464137077332, 0.09237226098775864, 0.11145452409982681, -0.00945141352713108, 0.08657053112983704, -0.0712989866733551, -0.08225294202566147, -0.0745917484164238], [0.12011916935443878, 0.13497394323349, -0.23222337663173676, 0.1869087815284729, -0.06843577325344086, 0.063222736120224, 0.14955207705497742, 0.3387013375759125, 0.19117070734500885, 0.26788678765296936, 0.004081918857991695, 0.14574633538722992, 0.1406489461660385], [-0.18218965828418732, -0.2741048038005829, 0.22726686298847198, -0.3567045331001282, 0.3791733384132385, 0.1503826230764389, -0.09776534885168076, 0.08181850612163544, -0.034361351281404495, -0.04226979240775108, 0.10888256877660751, 0.10580083727836609, -0.07941179722547531], [0.3483058214187622, 0.3179665207862854, 0.09153997153043747, 0.005416086874902248, 0.2084645926952362, -0.18240731954574585, -0.16392451524734497, -0.19056276977062225, 0.07732962816953659, 0.06832533329725266, -0.029701342806220055, -0.09848059713840485, 0.11489803344011307], [0.1491517722606659, -0.2912342846393585, -0.15358997881412506, 0.0811198279261589, -0.21115925908088684, 0.13169844448566437, -0.08156517148017883, 0.2981652021408081, -0.08400361239910126, -0.1457701027393341, 0.2127554714679718, -0.25152307748794556, 0.145527645945549], [-0.01336854137480259, 0.3167458474636078, -0.1622024029493332, 0.0932234525680542, -0.14092087745666504, -0.14543254673480988, 0.3012832701206207, 0.16280527412891388, 0.19834963977336884, 0.07675684243440628, -0.14432170987129211, -0.1492878794670105, -0.16940119862556458], [0.07762737572193146, -0.04385405033826828, 0.18557916581630707, -0.1604643017053604, 0.15786689519882202, 0.0687873512506485, -0.17736653983592987, 0.26130345463752747, -0.15188880264759064, 0.04376210644841194, 0.11219999194145203, -0.09599029272794724, 0.04715370386838913], [0.17366603016853333, 0.20457111299037933, 0.05730162933468819, 0.24782031774520874, 0.21345649659633636, 0.04681054502725601, 0.01539351511746645, 0.1563374400138855, 0.045647650957107544, -0.12593701481819153, -0.08429700881242752, -0.11430766433477402, -0.02267642319202423], [-0.041931550949811935, -0.2137802541255951, -0.21360518038272858, -0.0267891027033329, -0.16417600214481354, -0.21844705939292908, -0.16275940835475922, -0.2745262682437897, -0.3018864691257477, 0.0015434491215273738, 0.12526077032089233, 0.17969286441802979, 0.1454090029001236], [0.18202577531337738, 0.43666478991508484, 0.38230475783348083, 0.19590407609939575, -0.04578632861375809, 0.22028109431266785, -0.09311578422784805, -0.22326567769050598, -0.099031001329422, 0.12845636904239655, 0.17496290802955627, 0.12074097245931625, -0.17879530787467957], [0.1252707839012146, 0.31696709990501404, 0.16807126998901367, 0.0675339624285698, 0.008761738426983356, -0.055483005940914154, -0.03203637897968292, -0.16177015006542206, -0.2900339961051941, -0.21105264127254486, -0.2879752516746521, -0.11877007782459259, -0.2849108874797821], [0.11444175988435745, -0.17682388424873352, 0.18940234184265137, 0.16934093832969666, -0.07922908663749695, 0.17859043180942535, 0.07258396595716476, -0.20678187906742096, -0.06078868359327316, -0.15625207126140594, -0.27150270342826843, 0.055175818502902985, -0.21616233885288239], [-0.32281172275543213, 0.08582092076539993, 0.18929453194141388, 0.17328497767448425, -0.0487433522939682, -0.010506690479815006, -0.16905970871448517, -0.2764318287372589, -0.22763888537883759, -0.08096325397491455, -0.20639914274215698, 0.01858910173177719, 0.025288773700594902], [-0.23375043272972107, -0.20884539186954498, -0.12360682338476181, -0.2068607658147812, -0.15591740608215332, -0.20495489239692688, 0.05185862258076668, -0.0895552709698677, 0.13879208266735077, 0.1206774041056633, 0.0028607076965272427, -0.12971211969852448, 0.061633020639419556], [-0.3094109892845154, 0.10308738797903061, -0.3233737647533417, -0.1093355119228363, -0.137542724609375, 0.13318338990211487, -0.16445329785346985, 0.19068849086761475, 0.05254864692687988, 0.2010343074798584, -0.03316134214401245, 0.05449822172522545, -0.06239023432135582], [-0.17013561725616455, -0.2901920974254608, -0.12851223349571228, -0.21221067011356354, 0.2529031038284302, -0.3347366452217102, 0.15896613895893097, 0.17756816744804382, -0.021797241643071175, -0.13754601776599884, 0.11554121226072311, 0.0010908617405220866, -0.15871688723564148], [-0.04220879450440407, -0.0807352140545845, -0.06722971051931381, 0.026795459911227226, 0.12332236766815186, -0.16798099875450134, 0.16690322756767273, 0.1931564062833786, 0.09345056116580963, 0.026265323162078857, -0.2161305546760559, -0.25068768858909607, 0.07661932706832886], [0.36621323227882385, 0.2809705436229706, -0.02282741107046604, -0.2304912656545639, 0.2193145602941513, -0.11549079418182373, -0.2831331193447113, -0.1787036508321762, 0.018250761553645134, 0.12826377153396606, 0.15317362546920776, 0.17095811665058136, 0.17285054922103882], [-0.04044670984148979, 0.20230259001255035, -0.10938899964094162, 0.1800583451986313, 0.09616372734308243, 0.3415364623069763, -0.02014964446425438, -0.09520309418439865, 0.04309520497918129, 0.061213042587041855, 0.0084781963378191, 0.17635728418827057, -0.1562480479478836], [-0.28401660919189453, 0.4378727972507477, 0.06050487235188484, 0.3432677984237671, -0.1580525040626526, -0.0023354326840490103, 0.014263699762523174, -0.08666350692510605, -0.12236958742141724, 0.15254832804203033, 0.2205517739057541, 0.09991983324289322, 0.26297518610954285], [0.24312187731266022, 0.4065154194831848, 0.2246214598417282, 0.1502447873353958, -0.07625298947095871, -0.14623750746250153, -0.23472079634666443, -0.05179990828037262, -0.23229430615901947, -0.11691587418317795, -0.26365959644317627, 0.05390065163373947, -0.05025307834148407], [-0.1758212447166443, -0.05722777917981148, 0.17699256539344788, -0.27987489104270935, 0.03489943966269493, -0.2712116837501526, -0.15525388717651367, -0.00135162437800318, 0.15283071994781494, 0.18288004398345947, -0.01971154659986496, 0.2092236876487732, -0.08908496052026749], [-0.26930713653564453, -0.4041394591331482, -0.09962864220142365, 0.322030633687973, -0.20246045291423798, -0.14060284197330475, 0.13879427313804626, -0.09653164446353912, 0.019731024280190468, -0.1827337145805359, 0.11687346547842026, -0.0173935629427433, -0.008230218663811684], [0.3461633324623108, 0.10991659760475159, -0.3081488609313965, 0.3481930196285248, 0.2710666358470917, 0.20617395639419556, -0.1946784108877182, 0.16437716782093048, -0.014942942187190056, 0.09568196535110474, 0.13748471438884735, 0.09480893611907959, -0.2336731255054474], [-0.09536910057067871, -0.347336083650589, 0.06141257286071777, 0.13520392775535583, 0.08733275532722473, -0.2550981640815735, 0.24251705408096313, -0.10660413652658463, -0.25099486112594604, 0.14619769155979156, -0.21457606554031372, 0.011682159267365932, 0.06674197316169739], [0.08440172672271729, -0.1220008134841919, 0.0017997481627389789, -0.05144740268588066, -0.1531619131565094, 0.31105196475982666, -0.15510083734989166, 0.07778987288475037, 0.09259591996669769, -0.08594521880149841, 0.007455612998455763, 0.1412971466779709, -0.1446083039045334], [0.2258162498474121, -0.1517936885356903, 0.3183545172214508, -0.18708980083465576, -0.0012156750308349729, -0.10780632495880127, -0.08700916171073914, 0.023021891713142395, -0.06267476826906204, -0.0827798917889595, 0.1603509783744812, -0.08707068115472794, 0.08302968740463257], [0.4708611071109772, -0.13338278234004974, 0.2679779827594757, -0.13249939680099487, 0.03286786377429962, 0.2549940049648285, -0.04041137546300888, 0.03635258972644806, 0.061155352741479874, -0.05987228825688362, -0.10172323882579803, -0.05097879096865654, 0.1061471477150917], [0.28730258345603943, -0.3744201362133026, 0.11904045939445496, -0.05262698605656624, -0.019249487668275833, -0.08214805275201797, -0.1331377774477005, 0.02972414158284664, -0.038191813975572586, 0.07996844500303268, 0.03227680176496506, 0.07639257609844208, 0.027424387633800507], [-0.08941909670829773, 0.36993715167045593, -0.07543563842773438, -0.4768032729625702, -0.23822960257530212, 0.38706350326538086, -0.10243005305528641, -0.2097989320755005, -0.1745152622461319, -0.03064819797873497, 0.027778519317507744, 0.1464363932609558, -0.1699623465538025], [-0.16899095475673676, -0.3417533040046692, 0.20382045209407806, 0.10496089607477188, -0.051370326429605484, 0.14863748848438263, 0.13315239548683167, -0.14356555044651031, -0.04006899148225784, 0.03666277974843979, -0.1288451850414276, -0.0830342099070549, 0.06340568512678146], [-0.2931167483329773, 0.008219828829169273, 0.07136204838752747, 0.12869563698768616, 0.0027067537885159254, 0.1855253130197525, -0.051982805132865906, -0.02933291345834732, 0.0171674694865942, -0.13286592066287994, 0.10018976032733917, -0.030602997168898582, 0.15118597447872162], [0.2966488003730774, -0.1738128662109375, 0.057752273976802826, -0.22134019434452057, 0.07870135456323624, -0.006448294036090374, 0.11469779163599014, 0.09520895779132843, -0.09267141669988632, 0.010911745019257069, -0.011201969347894192, -0.08531912416219711, -0.1788226217031479], [-0.17499883472919464, 0.07476754486560822, 0.25201356410980225, 0.045944761484861374, -0.03739788010716438, 0.06453972309827805, 0.13593657314777374, -0.14394383132457733, 0.06485705077648163, 0.1934773325920105, 0.010581034235656261, -0.14195799827575684, -0.29237669706344604], [-0.018144575878977776, -0.04926902428269386, 0.2415090799331665, -0.2933550179004669, 0.17007797956466675, -0.12317155301570892, -0.1226549819111824, 0.09600994735956192, -0.31470009684562683, 0.20428869128227234, -0.28565067052841187, 0.18841350078582764, -0.07892879098653793], [0.01791500486433506, -0.03367690369486809, -0.006315740291029215, -0.14540576934814453, 0.2387903928756714, 0.01395615004003048, 0.14245326817035675, -0.06445809453725815, 0.050221823155879974, -0.1430782675743103, 0.018355820327997208, -0.034046050161123276, 0.004242774099111557], [0.2539936304092407, -0.3865273594856262, -0.17190328240394592, -0.04448631778359413, 0.23261184990406036, -0.09201478213071823, -0.17749281227588654, -0.008908005431294441, 0.13358259201049805, -0.166034996509552, -0.18856637179851532, 0.024863651022315025, 0.07388308644294739], [-0.26065051555633545, -0.08540917932987213, -0.3310495913028717, 0.18670319020748138, 0.15868055820465088, -0.08555856347084045, -0.22865448892116547, -0.23355382680892944, -0.13963466882705688, 0.04693084955215454, 0.07627303898334503, 0.3330703675746918, 0.2068958729505539], [-0.2327170968055725, 0.34258368611335754, 0.29837536811828613, -0.08036042749881744, 0.12337060272693634, -0.13254587352275848, 0.20453552901744843, 0.030952630564570427, 0.1742044985294342, 0.14077971875667572, 0.062491826713085175, 0.2585848569869995, -0.08607553690671921], [-0.13392144441604614, 0.007208818104118109, -0.45321938395500183, -0.23182398080825806, -0.0066611431539058685, -0.30996665358543396, -0.13188239932060242, -0.037124864757061005, 0.15412819385528564, 0.2614050805568695, 0.1658509075641632, -0.0020524649880826473, 0.11615515500307083], [0.1175234243273735, -0.293916255235672, 0.1954006552696228, -0.32787618041038513, 0.2485353648662567, -0.1508447825908661, 0.045321084558963776, -0.04781545698642731, -0.0700768381357193, 0.20392033457756042, -0.024031640961766243, 0.018871841952204704, -0.12528863549232483], [0.3744904398918152, 0.35599151253700256, -0.013586046174168587, 0.06372552365064621, -0.059845201671123505, -0.09773434698581696, 0.10753302276134491, -0.11408889293670654, -0.13865412771701813, -0.08692827075719833, -0.14374522864818573, 0.03688378632068634, -0.12238416820764542], [-0.06920066475868225, -0.21735359728336334, -0.355394184589386, 0.009775036945939064, -0.08318347483873367, -0.11818911135196686, -0.1646774560213089, 0.06805241107940674, 0.20930300652980804, -0.024703217670321465, -0.2104358673095703, -0.23744642734527588, -0.24809125065803528], [0.136116161942482, -0.34232109785079956, 0.18718218803405762, -0.14571747183799744, 0.07164949923753738, -0.2925279438495636, 0.21924558281898499, 0.012380963191390038, 0.09920971095561981, -0.19753627479076385, 0.06868454068899155, -0.22937725484371185, 0.08016469329595566], [0.20877492427825928, 0.04182539880275726, 0.12369739264249802, -0.04763690009713173, -0.03746596723794937, 0.09013035893440247, -0.03852170705795288, -0.09281831234693527, -0.15826807916164398, -0.1096547394990921, -0.20648178458213806, -0.10416212677955627, 0.0010035864543169737], [-0.3174968957901001, 0.02483898401260376, -0.28624603152275085, -0.15389643609523773, 0.10845170170068741, 0.004805602598935366, 0.03301194682717323, 0.2050010710954666, -0.09711609035730362, 0.006377712357789278, -0.10149049013853073, 0.17705893516540527, 0.19973327219486237], [-0.15955547988414764, -0.08494476228952408, 0.16886135935783386, -0.10088230669498444, -0.1638065129518509, -0.20707598328590393, -0.26054245233535767, 0.27221351861953735, -0.1852288544178009, 0.20076759159564972, 0.11569631099700928, 0.18849773705005646, 0.13121099770069122], [0.2895117998123169, -0.20445114374160767, -0.22129134833812714, -0.11582525074481964, 0.1324710100889206, 0.06197969987988472, 0.23020538687705994, 0.08868414163589478, -0.08989295363426208, 0.20673687756061554, -0.19046957790851593, -0.09912177175283432, -0.008146689273416996], [0.3284447491168976, -0.2258445918560028, 0.24281302094459534, -0.07394196838140488, 0.03542366251349449, 0.1819005012512207, 0.21516118943691254, 0.02821861207485199, -0.1685108095407486, -0.005446256138384342, 0.14229926466941833, 0.17936967313289642, 0.0039113182574510574], [0.04447086155414581, -0.12003526836633682, -0.04281597211956978, -0.28528353571891785, 0.06769838184118271, 0.059265170246362686, 0.22217710316181183, -0.14255358278751373, -0.10287638753652573, -0.0740472748875618, 0.25453799962997437, 0.15974587202072144, 0.15210893750190735], [0.024486789479851723, 0.020848587155342102, -0.16356344521045685, 0.041021086275577545, -0.07777393609285355, 0.3065537214279175, -0.03155498206615448, 0.053275350481271744, -0.020334403961896896, 0.21115171909332275, 0.06979618221521378, -0.1824425905942917, 0.1499214470386505], [-0.2853640615940094, 0.31973889470100403, 0.3223712146282196, -0.292064905166626, 0.11449431627988815, 0.24080002307891846, -0.16372908651828766, 0.08719883114099503, 0.07333331555128098, -0.05926269665360451, -0.09468866884708405, 0.168892040848732, -0.11333045363426208], [-0.10852255672216415, 0.1942174881696701, 0.1673285961151123, -0.11301133781671524, -0.022801131010055542, 0.024419669061899185, 0.06427580863237381, 0.039478011429309845, 0.16441059112548828, 0.19740167260169983, 0.13724447786808014, -0.1584438979625702, -0.31294265389442444], [0.4252980351448059, 0.5459595322608948, -0.13054987788200378, 0.0827382281422615, -0.11892390251159668, -0.24619868397712708, -0.13278363645076752, -0.035365477204322815, 0.029558800160884857, -0.08590283989906311, 0.03414874151349068, -0.10699646174907684, -0.09099361300468445], [0.09780240803956985, 0.16183529794216156, -0.0246784295886755, 0.19120283424854279, 0.009525120258331299, 0.13771510124206543, -0.03610295057296753, -0.05829010531306267, 0.18596717715263367, -0.15839260816574097, 0.12425211817026138, -0.08534766733646393, 0.1916901022195816], [0.3089485466480255, 0.029676226899027824, -0.24506911635398865, 0.40848445892333984, -0.0065332744270563126, -0.1782737523317337, 0.24370282888412476, -0.01653880998492241, 0.008515352383255959, 0.11109089851379395, 0.08330509811639786, 0.1620415300130844, -0.041560981422662735], [-0.23531140387058258, -0.28700655698776245, -0.08187178522348404, -0.20640312135219574, -0.19389039278030396, -0.13978493213653564, -0.27698343992233276, -0.17674462497234344, -0.1545824110507965, -0.1371266394853592, -0.27742812037467957, 0.15219810605049133, -0.21902033686637878], [-0.07193303853273392, 0.17686469852924347, -0.06110139936208725, 0.30224961042404175, 0.16184325516223907, -0.2693919241428375, 0.27760425209999084, 0.03892117366194725, -0.17714959383010864, 0.25250479578971863, 0.00092651741579175, -0.2233496904373169, 0.2046501636505127], [0.1944950968027115, -0.29042595624923706, -0.015056446194648743, 0.034196898341178894, 0.18145357072353363, 0.20235894620418549, -0.1246587261557579, 0.005573313683271408, 0.028570255264639854, 0.20564785599708557, 0.056775566190481186, -0.018163694068789482, 0.09051767736673355], [0.26482993364334106, -0.19635485112667084, 0.16445016860961914, 0.06281568109989166, 0.11147280037403107, -0.2695692777633667, -0.08774977922439575, -0.09064310044050217, -0.07859858125448227, -0.1505880355834961, 0.20731718838214874, 0.11934160441160202, -0.07723359018564224], [0.10026819258928299, -0.007117019966244698, -0.23920173943042755, 0.3688614070415497, -0.3525996208190918, 0.13462337851524353, 0.027070829644799232, -0.3216297924518585, 0.20831917226314545, -0.22913964092731476, 0.07664944231510162, 0.04799169674515724, -0.12347536534070969], [-0.05454530566930771, 0.30469828844070435, 0.047483179718256, 0.31287136673927307, -0.264485627412796, -0.13135115802288055, -0.024294426664710045, 0.014014124870300293, 0.09516913443803787, -0.09831135720014572, 0.07052438706159592, 0.01530611515045166, 0.10571260005235672], [-0.09962622821331024, -0.17920911312103271, -0.11871405690908432, -0.1488562524318695, -0.03676452487707138, -0.3442750573158264, -0.17378804087638855, 0.06753838062286377, -0.05353065952658653, -0.171132430434227, -0.10307006537914276, -0.0223882757127285, 0.17384180426597595], [0.15051968395709991, -0.31483832001686096, -0.2221881002187729, 0.11189893633127213, 0.06346217542886734, -0.19790905714035034, 0.1675223708152771, -0.16018888354301453, -0.018910204991698265, -0.059203729033470154, -0.07827658206224442, -0.22920438647270203, -0.19007623195648193], [0.261871874332428, 0.27532997727394104, -0.19553188979625702, 0.08965778350830078, -0.20311057567596436, -0.16716259717941284, 0.07751790434122086, 0.23413854837417603, -0.016081610694527626, 0.27352094650268555, 0.166535422205925, 0.11491852253675461, 0.1606382429599762], [0.16657601296901703, -0.3283502757549286, -0.08234873414039612, -0.23378489911556244, -0.07496949285268784, -0.25744736194610596, -0.08817292004823685, -0.23126280307769775, -0.12315607815980911, -0.12478522956371307, -0.04628988727927208, 0.15082503855228424, 0.27543798089027405], [0.19818298518657684, -0.153770312666893, -0.15282440185546875, 0.009124821051955223, -0.2098764330148697, -0.3154558539390564, -0.24514923989772797, -0.24167603254318237, -0.1852552741765976, -0.015606030821800232, 0.24829329550266266, 0.23597940802574158, 0.26887792348861694], [0.24829047918319702, -0.2534855604171753, -0.34553179144859314, -0.1731848567724228, 0.10955315828323364, 0.10840466618537903, 0.06776869297027588, -0.20087026059627533, -0.0025870436802506447, -0.19826121628284454, -0.01677822507917881, -0.21721753478050232, 0.11865920573472977], [0.18309155106544495, -0.1316840499639511, -0.11949650198221207, 0.2930312752723694, -0.19633835554122925, 0.28034812211990356, -0.188749298453331, 0.19680286943912506, -0.14958181977272034, 0.08862078934907913, -0.13763484358787537, 0.03595474362373352, -0.1579216569662094], [0.2666392922401428, 0.17847612500190735, 0.23042139410972595, -0.11855781823396683, -0.059933196753263474, -0.09378454089164734, -0.15555155277252197, -0.0690496563911438, -0.07191386073827744, -0.07540468871593475, -0.07271280884742737, 0.09675224125385284, -0.1997200846672058], [-0.24537639319896698, -0.2536369264125824, -0.19933311641216278, -0.17704667150974274, -0.01839546672999859, -0.08709774166345596, -0.15271732211112976, 0.07852168381214142, -0.15492653846740723, -0.06026499345898628, -0.03098468668758869, 0.01116233877837658, -0.15477445721626282], [-0.1814921796321869, 0.1865794062614441, -0.30595552921295166, 0.21911396086215973, 0.2584491968154907, -0.28106024861335754, -0.0662614107131958, 0.10961668193340302, -0.0026982349809259176, 0.08226209133863449, -0.047082096338272095, -0.0288244616240263, 0.029527075588703156], [0.34345337748527527, -0.39285463094711304, 0.02224656008183956, 0.20374619960784912, 0.026542486622929573, -0.08275647461414337, -0.06224813312292099, 0.0813070610165596, 0.049595076590776443, 0.1104559451341629, 0.1351562887430191, 0.040810443460941315, 0.0693945661187172], [0.38722383975982666, -0.3775515854358673, -0.15888652205467224, 0.18654771149158478, 0.07799948006868362, -0.2040320187807083, 0.26655131578445435, 0.003521933685988188, 0.1699758917093277, -0.20102550089359283, -0.11329413205385208, 0.03442593291401863, 0.08174113184213638], [-0.10788454860448837, -0.2805924117565155, -0.30070459842681885, 0.20890986919403076, 0.2520683705806732, 0.22773176431655884, 0.14035004377365112, 0.16337643563747406, -0.02478712424635887, 0.030500443652272224, 0.20411215722560883, -0.07492469251155853, -0.2575886845588684], [0.23519708216190338, -0.18766050040721893, 0.06311707943677902, -0.19953134655952454, 0.14522573351860046, 0.10892841964960098, 0.024357665330171585, 0.054529547691345215, -0.1149100586771965, -0.11695374548435211, 0.05028337240219116, 0.16944798827171326, -0.12270648032426834], [0.1426137536764145, -0.035420238971710205, 0.05460431054234505, -0.2014531046152115, 0.014692054130136967, -0.1783381849527359, -0.22391846776008606, 0.012427585199475288, -0.24459455907344818, 0.009070789441466331, -0.21124352514743805, -0.03975112736225128, -0.21262285113334656], [-0.05695198476314545, -0.013692873530089855, -0.373601496219635, -0.27447643876075745, -0.12582789361476898, 0.18423713743686676, 0.1911734640598297, 0.10523353517055511, -0.2776765823364258, -0.07794510573148727, -0.08590716123580933, 0.11536628752946854, 0.03174535185098648], [0.14374470710754395, 0.2995152473449707, 0.10715310275554657, 0.24177813529968262, -0.10629232972860336, 0.28684335947036743, -0.11998198926448822, -0.01830347068607807, -0.17724920809268951, -0.19177578389644623, 0.0960795059800148, -0.26450031995773315, 0.028940660879015923], [0.03777819499373436, 0.1474093496799469, 0.2444552779197693, 0.20998898148536682, -0.14162930846214294, 0.05264978110790253, -0.19229653477668762, -0.3496618866920471, -0.036522384732961655, -0.22114205360412598, -0.15594062209129333, -0.14307686686515808, 0.03500811383128166], [0.19085311889648438, 0.372868150472641, 0.12340837717056274, -0.0361161045730114, -0.04630957171320915, 0.2914198338985443, 0.3142944574356079, 0.25438055396080017, 0.1355500966310501, 0.007238677702844143, 0.07076314836740494, -0.04263615980744362, 0.008026408962905407], [-0.38792818784713745, -0.04840706288814545, 0.08267445117235184, 0.21785883605480194, 0.20766599476337433, 0.013342393562197685, 0.12691234052181244, 0.30913403630256653, -0.12988898158073425, 0.27245888113975525, -0.06394083797931671, 0.12467371672391891, 0.07023656368255615], [-0.2426048070192337, 0.42032986879348755, 0.26477348804473877, -0.14650458097457886, -0.27228260040283203, -0.149128258228302, 0.08319246023893356, 0.17255248129367828, 0.18290700018405914, -0.022719303146004677, -0.09822637587785721, -0.10540619492530823, -0.05313652753829956], [0.37474867701530457, 0.27521955966949463, -0.23869101703166962, -0.060341618955135345, 0.0590585358440876, 0.12955155968666077, -0.1346103399991989, 0.18132491409778595, -0.007518693804740906, -0.20365500450134277, 0.03452287241816521, -0.04500246047973633, -0.15957026183605194], [0.13349385559558868, 0.1887737363576889, -0.11776361614465714, -0.36419981718063354, 0.15528713166713715, -0.28299254179000854, -0.14517705142498016, 0.19142986834049225, 0.05805540457367897, 0.2888794243335724, 0.19543489813804626, 0.19439326226711273, -0.15501341223716736], [0.47480154037475586, 0.16379402577877045, 0.18844495713710785, -0.021573159843683243, 0.30083733797073364, 0.12823420763015747, 0.003804676467552781, -0.0027514679823070765, -0.049166955053806305, -0.0015567929949611425, -0.07122936099767685, 0.10568203032016754, -0.10850511491298676], [-0.0628248006105423, -0.1769484132528305, -0.03946962207555771, 0.04039991274476051, -0.0545768067240715, 0.25201520323753357, -0.17833459377288818, -0.19785697758197784, -0.18635886907577515, 0.050607167184352875, 0.2714727818965912, 0.17314764857292175, -0.025677237659692764], [-0.02969553880393505, 0.33098217844963074, 0.15586040914058685, 0.29761171340942383, -0.18883714079856873, 0.2699297368526459, 0.3264901041984558, -0.1372123807668686, 0.20360001921653748, 0.07135136425495148, -0.19463835656642914, 0.07211969047784805, -0.07643384486436844], [0.4086519777774811, 0.31718912720680237, -0.16388185322284698, -0.10844945907592773, -0.0058548469096422195, 0.2674870193004608, -0.13948267698287964, 0.12092715501785278, 0.047492168843746185, 0.15356148779392242, 0.1647568643093109, -0.046628352254629135, -0.04938482493162155], [-0.24928076565265656, -0.30364301800727844, -0.07997847348451614, -0.058800362050533295, -0.008220215328037739, -0.1960364580154419, 0.027026468887925148, -0.075319305062294, -0.04608231782913208, -0.03566015139222145, 0.08163028955459595, -0.01679597795009613, -0.2962689697742462], [-0.0472293496131897, -0.27162399888038635, -0.30205580592155457, 0.28573915362358093, -0.24399158358573914, 0.1574011892080307, -0.07639182358980179, -0.15152880549430847, -0.05098975449800491, -0.08524022251367569, 0.0013827331131324172, -0.17840950191020966, 0.2231387346982956], [0.11315622180700302, 0.013249155133962631, 0.18879026174545288, -0.11477155238389969, 0.26968568563461304, -0.3695451021194458, 0.14726662635803223, -0.1210700049996376, 0.20077894628047943, -0.015603125095367432, 0.21413478255271912, 0.11670858412981033, 0.3173196613788605], [-0.46255818009376526, -0.3232730031013489, -0.2725776433944702, -0.21740123629570007, -0.11849328875541687, 0.010342603549361229, 0.018351683393120766, -0.08634960651397705, -0.06335470825433731, 0.09099481999874115, 0.2597213387489319, 0.07232727855443954, 0.02687448263168335], [-0.13544751703739166, 0.03797788918018341, -0.16179493069648743, -0.1147681251168251, -0.05817243084311485, -0.011937922798097134, -0.25151148438453674, -0.15650975704193115, -0.19435614347457886, -0.13821233808994293, -0.13783922791481018, 0.02596365474164486, -0.013048707507550716], [-0.025244038552045822, 0.24497319757938385, 0.26428884267807007, 0.07809600979089737, 0.0560702420771122, -0.22208304703235626, -0.1172824278473854, -0.25846970081329346, -0.18645194172859192, 0.11979887634515762, 0.08086098730564117, -0.03516159951686859, 0.13182847201824188], [0.2142886519432068, 0.015853211283683777, -0.18991152942180634, 0.3936530649662018, -0.4377829432487488, -0.07914387434720993, -0.18792395293712616, 0.18762442469596863, -0.11528975516557693, 0.07713089138269424, 0.10453591495752335, 0.09442656487226486, 0.0565207339823246], [-0.14157447218894958, 0.23054139316082, 0.06458567082881927, 0.012304568663239479, -0.15511733293533325, -0.24257461726665497, -0.36233606934547424, -0.1638142168521881, -0.18341560661792755, 0.20710457861423492, 0.1506769359111786, 0.13018186390399933, -0.01685306243598461], [0.09376057237386703, 0.325219988822937, -0.017379356548190117, -0.4944625198841095, -0.11055538803339005, -0.3422556221485138, 0.11320026963949203, 0.06425081938505173, 0.14263738691806793, -0.04656431823968887, 0.13389262557029724, 0.03840608894824982, -0.05361667647957802], [0.2299024760723114, -0.08661743253469467, 0.006376483011990786, -0.1116415336728096, -0.1460622102022171, -0.15405867993831635, -0.23036952316761017, -0.1482793092727661, -0.3021969199180603, -0.21068736910820007, -0.2406388819217682, -0.27169346809387207, -0.2504715323448181], [-0.21926738321781158, -0.009570322930812836, -0.008893865160644054, -0.2072562575340271, -0.2232058346271515, 0.00863699521869421, 0.14716990292072296, 0.258551687002182, -0.1154744103550911, 0.02654789388179779, -0.2495037466287613, -0.022570332512259483, -0.1553921401500702], [0.15251247584819794, 0.41809022426605225, -0.012624314054846764, -0.20972245931625366, -0.05505964905023575, 0.058619506657123566, 0.2181096225976944, 0.06724502891302109, -0.06780654937028885, -0.11916997283697128, -0.10411355644464493, -0.032796334475278854, 0.03234542906284332], [0.1438491940498352, 0.22862844169139862, -0.023814667016267776, 0.03677213937044144, 0.08962803333997726, -0.032882269471883774, -0.13604916632175446, -0.28767478466033936, 0.19788259267807007, 0.1771160364151001, -0.19444935023784637, 0.11372749507427216, 0.030495380982756615], [-0.04930954799056053, 0.06584399193525314, -0.1317114531993866, 0.036713242530822754, 0.25648218393325806, 0.08453499525785446, -0.06691083312034607, 0.02638082019984722, -0.16503985226154327, -0.07981173694133759, -0.05286629498004913, 0.14712229371070862, 0.014661015011370182], [-0.28243163228034973, 0.22515156865119934, -0.3017231822013855, 0.4024103879928589, -0.05088347569108009, 0.0280170775949955, 0.05319376662373543, 0.1462956666946411, -0.11009607464075089, 0.20629215240478516, -0.0601772665977478, -0.01850750669836998, 0.17006471753120422], [0.026320556178689003, 0.0692339688539505, -0.22937923669815063, -0.2977306842803955, 0.3042019009590149, -0.0647667795419693, -0.06563124060630798, 0.07033691555261612, -0.1389647126197815, -0.04324153810739517, -0.1993430107831955, 0.135592520236969, 0.06372124701738358], [-0.01089443638920784, 0.11224964261054993, 0.15583091974258423, -0.0965595543384552, 0.06006089597940445, 0.18699300289154053, -0.10623519867658615, -0.13530948758125305, 0.057710062712430954, 0.06896518170833588, -0.3000651001930237, -0.11537488549947739, -0.2663019001483917], [-0.06736801564693451, 0.01667696237564087, -0.1374015510082245, -0.28368377685546875, -0.11279021948575974, 0.10987868160009384, 0.1016635075211525, 0.21980108320713043, -0.1147971898317337, -0.17154522240161896, 0.022743679583072662, 0.09453603625297546, -0.10208015888929367], [0.04622681811451912, -0.17026354372501373, 0.08303486555814743, -0.319649338722229, 0.20078615844249725, -0.06076359376311302, -0.2116474062204361, 0.2519035041332245, -0.2437937706708908, 0.14149370789527893, -0.15447594225406647, -0.09206784516572952, -0.11134771257638931], [-0.2783697545528412, -0.3572036921977997, -0.365452378988266, 0.0010690824128687382, -0.0800320953130722, 0.019947415217757225, 0.25296369194984436, -0.3397972583770752, 0.224065899848938, -0.06790261715650558, -0.2005276083946228, 0.07736016064882278, 0.03807041421532631], [-0.17618043720722198, 0.4429057836532593, 0.004759666509926319, 0.1523815095424652, 0.2023593634366989, 0.19949042797088623, -0.04732302576303482, 0.1326880156993866, 0.10742716491222382, 0.03898083418607712, -0.008986671455204487, -0.06144831329584122, -0.12025605887174606], [-0.34878721833229065, -0.06379472464323044, 0.024264778941869736, 0.0206890981644392, -0.14371168613433838, 0.11264464259147644, -0.12387611716985703, -0.002622959204018116, -0.09585920721292496, -0.09966660290956497, 0.02580570988357067, -0.13287512958049774, 0.05573589354753494], [0.1806967556476593, -0.13110163807868958, -0.37474340200424194, 0.09648626297712326, -0.038897428661584854, -0.29813501238822937, 0.10699120163917542, -0.1934702843427658, 0.20351140201091766, 0.07952200621366501, -0.021776681765913963, 0.028454648330807686, -0.18423430621623993], [0.3196903467178345, -0.12195408344268799, -0.08887497335672379, -0.07734238356351852, -0.1853664219379425, 0.02214440144598484, 0.11172439903020859, 0.12402784824371338, 0.165694460272789, 0.056657060980796814, -0.09883774816989899, -0.2724702060222626, -0.1687508225440979], [0.404144287109375, 0.43483468890190125, 0.06816282868385315, 0.20319558680057526, 0.13638430833816528, -0.22171145677566528, -0.1823733001947403, 0.001006634091027081, 0.12367282062768936, -0.023343831300735474, -0.22778022289276123, -0.14744408428668976, -0.06474355608224869], [0.311746209859848, 0.16860002279281616, 0.26745155453681946, 0.12673796713352203, 0.11887756735086441, 0.19512678682804108, 0.1520511507987976, 0.19573262333869934, 0.08312805742025375, 0.06121869757771492, 0.21213707327842712, -0.12422766536474228, 0.0635639950633049], [-0.23110255599021912, 0.0014018622459843755, -0.1126779243350029, -0.0035038001369684935, 0.29061198234558105, 0.21645081043243408, 0.16858723759651184, -0.10820769518613815, 0.028658412396907806, -0.17534108459949493, 0.028170788660645485, -0.04367096722126007, 0.10995364189147949], [-0.0821453332901001, -0.23461319506168365, -0.05700978264212608, 0.019512837752699852, 0.25247371196746826, 0.13638116419315338, 0.06906815618276596, -0.19390492141246796, -0.1594206988811493, 0.08202070742845535, 0.04010513424873352, -0.034292206168174744, 0.059531621634960175], [-0.1266164779663086, 0.1544392704963684, 0.06822045147418976, -0.1444769650697708, -0.1016935184597969, -0.05080199986696243, 0.08683981746435165, -0.2209865152835846, -0.1441880762577057, -0.24387095868587494, 0.07513837516307831, 0.27786287665367126, 0.11205560714006424], [-0.2341509461402893, 0.3435913324356079, 0.13967421650886536, 0.11272886395454407, -0.032540515065193176, 0.21630018949508667, -0.19302882254123688, 0.029752058908343315, -0.16184614598751068, -0.08325368165969849, 0.09559137374162674, -0.03160325810313225, 0.12839087843894958], [-0.3105631470680237, 0.03194645419716835, 0.008022380992770195, 0.014379766769707203, -0.11130063980817795, 0.15405945479869843, -0.10755662620067596, 0.050616223365068436, 0.23639844357967377, -0.29705244302749634, 0.25827521085739136, -0.3881850838661194, 0.21057754755020142], [0.06999804824590683, -0.22927139699459076, 0.01246605720371008, -0.028827182948589325, 0.15745428204536438, -0.05239621549844742, -0.1996619999408722, 0.14448411762714386, -0.15152622759342194, -0.03656098246574402, 0.1158505529165268, -0.13815703988075256, 0.15804694592952728], [-0.21808567643165588, -0.12059242278337479, -0.26572054624557495, -0.1785731464624405, -0.17123588919639587, -0.32157862186431885, -0.14980551600456238, -0.26385775208473206, -0.15391866862773895, 0.07327262312173843, 0.03709481284022331, 0.25687721371650696, 0.23089146614074707], [-0.12057683616876602, 0.1531594693660736, -0.08773217350244522, -0.18621256947517395, 0.26127558946609497, 0.16683273017406464, 0.012462194077670574, 0.13242670893669128, -0.05697654187679291, -0.05278586596250534, -0.2677491009235382, -0.14548806846141815, -0.19446851313114166], [0.3104158043861389, 0.3738428056240082, 0.2542813718318939, -0.044029079377651215, -0.10900019854307175, -0.12442407757043839, -0.18376624584197998, 0.1242302879691124, -0.07533618807792664, 0.08723532408475876, -0.06875599920749664, 0.18635806441307068, 0.09951311349868774], [0.3148731291294098, 0.048030611127614975, -0.41615793108940125, 0.25984951853752136, 0.1530025601387024, -0.4014272689819336, 0.26783883571624756, 0.1749315857887268, -0.21039001643657684, 0.04470592364668846, 0.17449775338172913, -0.15836939215660095, 0.025496019050478935], [0.12261536717414856, -0.17947202920913696, -0.32481998205184937, -0.2917270064353943, 0.0045401896350085735, 0.18853072822093964, -0.12737707793712616, -0.20844516158103943, 0.14229673147201538, -0.2307928204536438, 0.12683376669883728, -0.14685869216918945, 0.3191136121749878], [0.02852042205631733, 0.19979266822338104, -0.1119571104645729, -0.024902859702706337, -0.1697089672088623, -0.13115155696868896, 0.02598184533417225, 0.30517610907554626, 0.2327585220336914, 0.05567626655101776, -0.039853520691394806, -0.11069344729185104, -0.28519123792648315], [-0.2922309339046478, -0.1309804916381836, 0.08286431431770325, 0.15430863201618195, -0.06536013633012772, -0.08794540911912918, -0.2537318766117096, -0.11609166115522385, -0.11559253931045532, 0.08547049015760422, 0.20387282967567444, 0.05994562432169914, -0.0260082446038723], [0.23284824192523956, -0.40294989943504333, 0.2623622417449951, -0.22008998692035675, 0.009160557761788368, 0.13365069031715393, 0.08956477791070938, -0.1330994963645935, -0.0221926998347044, 0.11939562112092972, -0.07335950434207916, 0.17246226966381073, 0.1224769651889801], [-0.24311563372612, 0.04564090073108673, -0.08866492658853531, -0.024394294247031212, -0.11899812519550323, -0.2880118489265442, 0.2233150154352188, -0.01123124547302723, -0.2214573472738266, 0.045446448028087616, -0.31770631670951843, -0.09057675302028656, -0.006834917701780796], [0.07702655345201492, -0.00913561787456274, 0.07826312631368637, -0.036645643413066864, -0.22218452394008636, -0.08670246601104736, -0.07871002703905106, 0.07568787038326263, 0.0983404740691185, -0.02027556300163269, 0.05940484628081322, -0.16583243012428284, -0.008402006700634956], [-0.10554032027721405, 0.09059658646583557, -0.03581633418798447, 0.07345693558454514, 0.008664706721901894, -0.10118653625249863, 0.32068607211112976, -0.22006717324256897, -0.00015299303049687296, 0.19632858037948608, -0.11384451389312744, 0.15601876378059387, 0.17355819046497345], [-0.2213146835565567, -0.07842209935188293, -0.15353700518608093, 0.1605408787727356, -0.10317708551883698, -0.17125162482261658, 0.15275165438652039, -0.2687991261482239, -0.1314530223608017, -0.12324600666761398, 0.07760126888751984, -0.01665095053613186, -0.2752016484737396], [0.1101405918598175, 0.01934417337179184, -0.2620835304260254, -0.16221849620342255, -0.27632638812065125, 0.20379728078842163, 0.19455213844776154, -0.022706547752022743, 0.14505316317081451, 0.020633826032280922, -0.14797234535217285, -0.021030381321907043, 0.11973942071199417], [-0.2166762501001358, 0.2552235722541809, 0.1338742971420288, 0.08601516485214233, 0.13867898285388947, -0.11190296709537506, -0.10011893510818481, 0.1483336091041565, 0.05446581169962883, 0.2291223555803299, 0.2632019817829132, 0.2045784294605255, 0.13047823309898376], [0.3359142243862152, -0.3633568286895752, -0.1029994785785675, -0.0706726536154747, 0.2639528810977936, -0.0067320275120437145, 0.04586951062083244, 0.16521677374839783, -0.05052630603313446, 0.07651717215776443, -0.03065367601811886, -0.0014829207211732864, 0.16066914796829224], [0.1728401780128479, -0.22620271146297455, 0.1977182775735855, -0.17025695741176605, -0.0038323462940752506, -0.12885747849941254, 0.08669845759868622, -0.13551661372184753, 0.2562413215637207, 0.11153385788202286, -0.2617684006690979, 0.18816611170768738, -0.007925383746623993], [-0.02416149340569973, 0.012271787971258163, -0.045579928904771805, -0.07213164120912552, -0.2454284280538559, 0.14058037102222443, -0.23576298356056213, 0.17113065719604492, 0.0028849528171122074, -0.05501185357570648, 0.06987166404724121, -0.11820071935653687, 0.19350655376911163], [0.0484241247177124, -0.3766454756259918, 0.10594432801008224, 0.14654137194156647, 0.14729872345924377, -0.11496218293905258, -0.26175379753112793, -0.07777246087789536, 0.08982621878385544, 0.09025153517723083, -0.17009606957435608, 0.1114417091012001, -0.23032765090465546], [0.12828126549720764, 0.08152742683887482, -0.2833443582057953, 0.23157905042171478, 0.1945367306470871, -0.22735866904258728, -0.23298627138137817, -0.108165442943573, -0.03382038697600365, 0.05139150097966194, -0.007483615539968014, -0.11503235995769501, 0.1340312361717224], [-0.05203745886683464, 0.05755176022648811, -0.26778358221054077, 0.04954038932919502, -0.14794816076755524, 0.13223432004451752, 0.26011574268341064, -0.10944090783596039, -0.2711101472377777, -0.10460571199655533, 0.04449593648314476, -0.010525069199502468, 0.0007158430526033044], [-0.07507409900426865, 0.19506533443927765, -0.012681852094829082, -0.18481460213661194, -0.2549999952316284, -0.009430180303752422, -0.15242700278759003, 0.04882773011922836, 0.15103068947792053, -0.10095338523387909, -0.16850490868091583, 0.08264511078596115, 0.20022596418857574], [0.3819954991340637, -0.41462549567222595, 0.21261267364025116, -0.07536246627569199, 0.04652553051710129, 0.06190674006938934, -0.014982624910771847, -0.056597620248794556, 0.06203928589820862, 0.017637306824326515, -0.006625114008784294, -0.04475615173578262, -0.15171539783477783], [0.10458561778068542, 0.09078317135572433, 0.10541792958974838, 0.012011658400297165, -0.13260920345783234, -0.154743492603302, 0.12195257842540741, 0.03962383046746254, 0.07984483242034912, 0.1318274736404419, 0.07182250171899796, 0.04155246540904045, 0.06577890366315842], [-0.14801615476608276, -0.29745835065841675, 0.050702981650829315, -0.0022530846763402224, 0.10381446033716202, -0.19180656969547272, 0.10685309022665024, 0.07829312235116959, -0.09689963608980179, -0.03375799581408501, -0.027235690504312515, -0.059323325753211975, -0.21995167434215546], [-0.00454525975510478, 0.08209298551082611, -0.1758040189743042, -0.21032840013504028, -0.20198753476142883, 0.1550445705652237, -0.2176780253648758, -0.12452054768800735, -0.15268674492835999, 0.0949682891368866, -0.03240985423326492, 0.1205376535654068, 0.24146892130374908], [0.3930286467075348, 0.4575405716896057, 0.047603998333215714, -0.08564119040966034, -0.043413832783699036, -0.032768573611974716, 0.05179784819483757, 0.14324788749217987, 0.014483466744422913, -0.07004974037408829, -0.1840721070766449, -0.06499622762203217, 0.08817179501056671], [-0.01324906200170517, 0.1287742257118225, -0.11973174661397934, 0.13473568856716156, 0.27891355752944946, 0.14476712048053741, 0.033717285841703415, -0.0718488022685051, 0.1700931340456009, 0.18000595271587372, 0.06144294887781143, 0.10467831790447235, 0.19865725934505463], [-0.012206701561808586, -0.27020275592803955, -0.12288011610507965, -0.2124980092048645, -0.012922280468046665, 0.003930408973246813, 0.054186657071113586, 0.05716066434979439, 0.18372638523578644, 0.04893907904624939, 0.0608222633600235, 0.09346364438533783, 0.03984961286187172], [0.21372555196285248, -0.17826437950134277, 0.24460560083389282, -0.22215275466442108, 0.20239286124706268, -0.25886499881744385, 0.1697171926498413, -0.20468631386756897, 0.04078799486160278, 0.18068385124206543, -0.22088752686977386, 0.20675404369831085, -0.2620835304260254], [0.33488237857818604, 0.2843521237373352, -0.020460346713662148, -0.04710877686738968, 0.2242722511291504, -0.21377180516719818, -0.04072839021682739, -0.16085059940814972, -0.11682647466659546, -0.11484019458293915, 0.15930597484111786, 0.059938617050647736, -0.15592581033706665], [-0.10505162179470062, -0.34990277886390686, -0.39568743109703064, -0.02099468931555748, 0.07409098744392395, 0.18636374175548553, 0.05343232303857803, 0.042952779680490494, -0.13230633735656738, -0.10468147695064545, -0.1593792885541916, 0.16161341965198517, -0.11221054196357727], [-0.1526736319065094, -0.28615236282348633, -0.1639028936624527, -0.23183949291706085, -0.1353561133146286, -0.1074700877070427, 0.0724993422627449, 0.13780121505260468, 0.11644823104143143, 0.02913570962846279, -0.015571577474474907, -0.12483231723308563, -0.017057079821825027], [0.05678042769432068, 0.3712208569049835, 0.11793055385351181, 0.28700894117355347, -0.06796596944332123, 0.20044200122356415, -0.17556694149971008, 0.14521761238574982, 0.10313044488430023, 0.05593111366033554, 0.1865321546792984, 0.03430652245879173, -0.01942741870880127], [0.16589348018169403, -0.2026115208864212, 0.22085614502429962, 0.024183452129364014, -0.3062361180782318, -0.025581305846571922, -0.002466818317770958, 0.0009958450682461262, 0.13005711138248444, 0.024438686668872833, 0.055614568293094635, 0.14126378297805786, -0.07805060595273972], [-0.32761260867118835, -0.2696857750415802, 0.24873219430446625, -0.16126984357833862, 0.21158450841903687, -0.014734800904989243, -0.015743209049105644, -0.0433586910367012, 0.0461997352540493, 0.00021376177028287202, -0.11933410912752151, -0.09416329115629196, -0.07270661741495132], [-0.11359335482120514, 0.1173383817076683, 0.1257559359073639, 0.22859734296798706, -0.006012612022459507, 0.10944846272468567, -0.19598343968391418, 0.09435819089412689, 0.2571741044521332, -0.2032465636730194, 0.19364461302757263, -0.06073485687375069, -0.14501532912254333], [-0.012062733992934227, 0.041959572583436966, 0.12529166042804718, 0.049096956849098206, 0.001967017538845539, -0.1137496680021286, 0.023914318531751633, 0.1129700168967247, 0.00426502525806427, 0.18360260128974915, -0.05389780178666115, 0.10843472182750702, -0.026613276451826096], [-0.09926597774028778, 0.09327036142349243, -0.24487870931625366, 0.0850733146071434, 0.08447564393281937, 0.06945068389177322, 0.07619105279445648, 0.03321494162082672, -0.2961459457874298, -0.18467099964618683, 0.23246072232723236, -0.18264788389205933, -0.31194886565208435], [-0.29631876945495605, -0.29584264755249023, -0.14162807166576385, 0.0606703944504261, -0.1442577838897705, 0.11526557803153992, -0.14890538156032562, 0.09092756360769272, 0.0741383284330368, -0.06550256907939911, 0.22876349091529846, 0.05245748907327652, 0.09490002691745758], [-0.08459470421075821, 0.18065549433231354, 0.18057022988796234, 0.2008308470249176, -0.16036857664585114, 0.1044020876288414, -0.04857984185218811, -0.11940182000398636, 0.23336049914360046, -0.030554762110114098, 0.10705931484699249, 0.13262389600276947, -0.05546814948320389], [0.1023159995675087, -0.02953495644032955, 0.24118663370609283, -0.15539102256298065, 0.2273874431848526, 0.18417568504810333, 0.09521306306123734, 0.17014402151107788, -0.0053953384049236774, 0.025983067229390144, 0.1372058242559433, 0.21832621097564697, 0.043895259499549866], [0.08280564844608307, -0.22332628071308136, 0.1006716713309288, -0.21568191051483154, -0.027435462921857834, -0.09836109727621078, -0.13909168541431427, -0.2012639194726944, -0.0008452971815131605, -0.10634573549032211, 0.04519794508814812, 0.02915632165968418, 0.21755287051200867], [0.1641562581062317, 0.19677571952342987, 0.3291023373603821, 0.11662281304597855, 0.06148881837725639, -0.13282404839992523, -0.06796396523714066, -0.0106356805190444, 0.022296614944934845, 0.09641220420598984, 0.022057194262742996, 0.035337600857019424, -0.11140744388103485], [0.291369765996933, -0.10087155550718307, -0.18443457782268524, 0.3060196042060852, -0.29812413454055786, 0.1923833191394806, -0.24131132662296295, -0.07834722101688385, -0.0013591920724138618, -0.004832099191844463, 0.2356826812028885, -0.18889981508255005, 0.26578018069267273], [0.1446896642446518, -0.16479900479316711, 0.1932201087474823, -0.0077870856039226055, -0.15216891467571259, 0.03671703860163689, -0.2103196084499359, -0.162594273686409, -0.05869056656956673, -0.0977306216955185, -0.02077200450003147, 0.1509529948234558, 0.27473580837249756], [0.020457949489355087, -0.14794449508190155, -0.43598473072052, 0.15361732244491577, -0.26716503500938416, -0.050973210483789444, -0.17303110659122467, 0.021812450140714645, -0.1440749317407608, -0.02646462433040142, -0.16529381275177002, 0.02049131877720356, 0.0737614631652832], [-0.27313244342803955, 0.13276003301143646, -0.22025950253009796, -0.1613961011171341, -0.056102581322193146, -0.21955768764019012, -0.11615008860826492, -0.07951527088880539, -0.03740387409925461, 0.1574731469154358, -0.006394422613084316, 0.17650099098682404, 0.12288723886013031], [-0.17655779421329498, -0.19756020605564117, -0.16928927600383759, -0.10596215724945068, -0.1378353387117386, -0.2672452926635742, -0.10837424546480179, -0.006140629295259714, -0.11556457728147507, 0.05721059814095497, -0.13201744854450226, -0.19588151574134827, -0.290776789188385], [-0.07914916425943375, -0.17163598537445068, -0.27693262696266174, 0.2507539391517639, 0.04298846423625946, -0.29744571447372437, -0.17986930906772614, 0.13367214798927307, -0.19780389964580536, -0.014651321806013584, 0.14223483204841614, 0.10514465719461441, -0.13178327679634094], [0.17315614223480225, 0.3146544098854065, 0.27329906821250916, -0.10831037163734436, -0.23911935091018677, -0.2525755763053894, -0.30411577224731445, 0.05901191383600235, -0.16689060628414154, -0.04087340831756592, 0.169036865234375, -0.10718529671430588, 0.2988717555999756], [0.39527326822280884, -0.21389561891555786, -0.06661538034677505, -0.16573774814605713, -0.18151608109474182, -0.2537968158721924, -0.20825380086898804, 0.22160501778125763, 0.011025511659681797, 0.1622437834739685, 0.09320121258497238, -0.029833165928721428, -0.002635491546243429], [0.3601236939430237, 0.13748955726623535, 0.20628826320171356, 0.2013489454984665, 0.16275624930858612, 0.17688123881816864, 0.23745274543762207, 0.1259511113166809, 0.0218077190220356, 0.0530695803463459, -0.019691849127411842, -0.050497718155384064, -0.0667799636721611], [-0.009873517788946629, 0.31362834572792053, 0.15044812858104706, 0.13097096979618073, -0.005049797240644693, 0.19877466559410095, 0.1791534274816513, 0.11628171801567078, -0.04716649651527405, -0.07141659408807755, -0.14144407212734222, 0.13816244900226593, 0.040941737592220306], [-0.06870988756418228, 0.2502366304397583, 0.1481305956840515, 0.20114260911941528, 0.20519931614398956, 0.14642614126205444, 0.2820240259170532, 0.13434146344661713, 0.13799206912517548, 0.04488811269402504, -0.20034384727478027, -0.20448240637779236, -0.3090032637119293], [-0.0734574943780899, 0.22707003355026245, -0.15136222541332245, -0.049421459436416626, 0.195234477519989, -0.2760690748691559, -0.42487993836402893, 0.01980271004140377, 0.01847214065492153, -0.10458013415336609, -0.011359969154000282, 0.09608359634876251, 0.10282161086797714], [-0.11766562610864639, 0.006271104793995619, -0.0035823911894112825, -0.07438500970602036, -0.05240478739142418, 0.09081293642520905, -0.22508934140205383, 0.24464315176010132, -0.1908462941646576, -0.0021403967402875423, -0.10681386291980743, -0.2776625454425812, 0.22175918519496918], [0.1757584661245346, -0.41795623302459717, 0.25035881996154785, 0.18285249173641205, 0.1388537585735321, 0.08253457397222519, -0.1362484097480774, -0.05376267433166504, 0.20396628975868225, -0.13912467658519745, 0.12393410503864288, 0.1645057201385498, -0.1356365978717804], [-0.11818896979093552, -0.06761249899864197, -0.09267581254243851, 0.056152306497097015, -0.08657073229551315, -0.07444136589765549, -0.07662541419267654, -0.16962756216526031, -0.17450091242790222, 0.09619324654340744, 0.1320212036371231, -0.08162304013967514, -0.22977398335933685], [0.19816212356090546, 0.04738670215010643, -0.16161693632602692, -0.27200615406036377, -0.2552712559700012, 0.1750183403491974, 0.0840020552277565, 0.04714392498135567, 0.1554856151342392, 0.11542072892189026, -0.15010972321033478, 0.14604859054088593, -0.1654251664876938], [0.026259927079081535, -0.07023842632770538, -0.07085175812244415, -0.0771653950214386, 0.08615761250257492, -0.32325467467308044, -0.25341323018074036, -0.09952188283205032, 0.12584421038627625, 0.028345339000225067, 0.17915895581245422, 0.08281250298023224, -0.11781362444162369], [-0.1993188112974167, -0.010065928101539612, -0.037325575947761536, -0.004072034265846014, -0.2630302309989929, -0.3631241023540497, -0.31273820996284485, 0.06344354152679443, 0.1866338700056076, 0.13587333261966705, 0.040809884667396545, 0.0378795824944973, 0.11151833832263947], [-0.3409951329231262, -0.07248614728450775, 0.32553961873054504, -0.028887707740068436, -0.08640829473733902, -0.2642233669757843, 0.01625310629606247, -0.11675486713647842, 0.06611251831054688, -0.13828524947166443, 0.11724338680505753, -0.013109794817864895, -0.08639392256736755], [-0.32816803455352783, -0.0698728859424591, -0.12402228266000748, -0.011132831685245037, 0.13701024651527405, -0.17703095078468323, -0.15572503209114075, -0.0446375273168087, 0.05302019417285919, 0.1139761209487915, -0.08919624239206314, -0.1877826303243637, -0.2599802017211914], [-0.22244411706924438, -0.10380169749259949, -0.036412570625543594, -0.13358712196350098, -0.15465807914733887, -0.1631983518600464, -0.08375106006860733, -0.029882017523050308, 0.011225519701838493, -0.049318261444568634, -0.059321291744709015, -0.08800594508647919, -0.0708746388554573], [-0.24894258379936218, 0.3289649784564972, 0.21617625653743744, -0.012594060972332954, 0.3027413785457611, 0.15104757249355316, 0.20077724754810333, -0.09010408073663712, -0.28662192821502686, -0.14709696173667908, -0.18873313069343567, 0.02749534696340561, -0.09128700196743011], [0.31323015689849854, -0.33448290824890137, 0.022311223670840263, -0.23673155903816223, 0.0161695946007967, -0.18999351561069489, -0.004522007890045643, -0.03829037398099899, 0.12303514778614044, -0.15035739541053772, 0.190664142370224, 0.0675865039229393, -0.14832286536693573], [-0.008897844702005386, 0.05274958163499832, -0.2133963704109192, 0.13978692889213562, 0.09997677057981491, 0.1042768657207489, 0.03647515922784805, -0.1055201068520546, 0.24483121931552887, -0.19456423819065094, -0.027414953336119652, 0.1130269467830658, -0.22937633097171783], [-0.24336761236190796, -0.08752736449241638, 0.1541169136762619, 0.127693772315979, 0.3100026249885559, 0.24545113742351532, 0.004022272769361734, 0.061845630407333374, 0.06492768228054047, 0.16892027854919434, -0.17996181547641754, -0.1539103388786316, 0.03443555533885956], [0.022794542834162712, -0.01662413403391838, 0.17704924941062927, -0.07370589673519135, 0.2243274748325348, -0.1407288759946823, 0.2724045217037201, 0.17590615153312683, -0.14297455549240112, -0.06126938760280609, 0.06843046098947525, -0.2472688853740692, -0.029801391065120697], [-0.18756438791751862, 0.13435378670692444, -0.09602478891611099, -0.16590090095996857, -0.038787007331848145, 0.00503180269151926, -0.17229560017585754, 0.07109727710485458, -0.15877282619476318, 0.1195795089006424, -0.08128497749567032, -0.16967740654945374, -0.1785738170146942], [0.40667176246643066, -0.37522220611572266, -0.333111971616745, 0.09731098264455795, -0.0332951694726944, -0.1409798264503479, -0.1663515716791153, -0.09082123637199402, -0.018865389749407768, -0.12257694453001022, 0.056519150733947754, 0.06977316737174988, 0.12255052477121353], [-0.27416667342185974, -0.26156601309776306, -0.34130144119262695, -0.1192888393998146, -0.10026035457849503, 0.19736050069332123, 0.07456127554178238, 0.2575260400772095, 0.11882060021162033, 0.16172973811626434, 0.1493149995803833, 0.12145640701055527, -0.1090039536356926], [0.009538098238408566, 0.05852961912751198, -0.21799558401107788, 0.06820457428693771, 0.23642471432685852, -0.12755516171455383, 0.18265676498413086, 0.1558704525232315, -0.14984408020973206, 0.03549981117248535, -0.04127980396151543, -0.22312363982200623, -0.022055473178625107], [0.07482896745204926, 0.042628973722457886, -0.18767498433589935, -0.12530182301998138, -0.2235630601644516, 0.09676309674978256, -0.15733611583709717, -0.05053551867604256, 0.1990521252155304, -0.105656698346138, -0.1660550832748413, -0.21176490187644958, -0.2009541541337967], [0.17097431421279907, 0.3840555250644684, 0.19729268550872803, -0.0273701474070549, 0.13907143473625183, 0.021073995158076286, 0.07749949395656586, 0.1386379897594452, -0.04421616718173027, 0.039506591856479645, 0.1297151744365692, 0.01967487297952175, -0.08042563498020172], [0.51779705286026, 0.3600009083747864, 0.20575650036334991, 0.02289370447397232, -0.0761580616235733, -0.1767933964729309, -0.09196754544973373, -0.20782208442687988, -0.17897211015224457, -0.1222163587808609, -0.12972824275493622, -0.1284945011138916, -0.06358947604894638], [-0.024311551824212074, 0.04827766492962837, -0.06242500618100166, 0.14656466245651245, 0.2945569157600403, 0.019445698708295822, -0.2026510089635849, -0.04392482340335846, -0.09410273283720016, 0.00011853489559143782, -0.071464404463768, -0.17649272084236145, 0.05097188428044319], [-0.044333312660455704, -0.09386882185935974, 0.09280730038881302, -0.08721639215946198, 0.010628049261868, 0.321960985660553, -0.03418895602226257, 0.14800573885440826, 0.12776191532611847, -0.06525913625955582, -0.01810719631612301, 0.16738665103912354, 0.004270336590707302], [-0.3236077129840851, -0.037422481924295425, 0.16218967735767365, 0.28767165541648865, 0.09064171463251114, -0.1613323986530304, -0.1197824776172638, 0.180695578455925, -0.2319982349872589, 0.14788062870502472, -0.11359290033578873, 0.057491954416036606, -0.16421842575073242], [0.0798199325799942, -0.05717286840081215, 0.008381776511669159, 0.0087515190243721, 0.034757573157548904, -0.13827012479305267, -0.0497245118021965, 0.1508162021636963, -0.09449081867933273, 0.16900727152824402, 0.24011754989624023, 0.05367957055568695, 0.09572241455316544], [0.3235277235507965, -0.05662385746836662, 0.2496854066848755, 0.023858102038502693, -0.11898130178451538, 0.3166022300720215, -0.31495246291160583, 0.19505780935287476, -0.05175476521253586, -0.11600011587142944, -0.005822919309139252, -0.11940176784992218, -0.1285967081785202], [0.362591415643692, 0.17161968350410461, 0.18055832386016846, 0.26694455742836, -0.12770460546016693, 0.16675716638565063, -0.07262361794710159, 0.02259744331240654, -0.028281334787607193, 0.11302580684423447, 0.11269009858369827, -0.05878353491425514, 0.01663900539278984], [0.12557755410671234, 0.11904601007699966, 0.25031524896621704, 0.42308977246284485, -0.037635136395692825, 0.25606539845466614, 0.12299173325300217, 0.034589335322380066, 0.07332806289196014, 0.06802629679441452, 0.05610670894384384, 0.02018924057483673, 0.1559745967388153], [0.22348512709140778, -0.16717399656772614, -0.27257829904556274, -0.014825716614723206, 0.26880505681037903, 0.033908404409885406, -0.050143443048000336, -0.34470152854919434, -0.006822573021054268, 0.21976371109485626, 0.19203411042690277, -0.1335245668888092, -0.11593876779079437], [0.35010334849357605, 0.13539372384548187, -0.39617931842803955, -0.2866078317165375, 0.1821994036436081, 0.24325399100780487, -0.037487905472517014, -0.10426627844572067, -0.16265161335468292, 0.06094111502170563, -0.2754216194152832, 0.09906763583421707, 0.1162833496928215], [0.19547733664512634, -0.21950776875019073, 0.1227414682507515, 0.13590124249458313, 0.11313032358884811, -0.15249891579151154, -0.12364345788955688, -0.016251306980848312, -0.098761186003685, 0.13264162838459015, -0.20025914907455444, 0.04613900184631348, 0.057482440024614334], [-0.04742750525474548, 0.0694676861166954, -0.26001688838005066, -0.10357990860939026, -0.054374441504478455, -0.16437286138534546, -0.11250938475131989, 0.07078475505113602, 0.18231815099716187, -0.10032030194997787, 0.06824441999197006, 0.1823480725288391, 0.01246523018926382], [0.04235250502824783, 0.13857895135879517, -0.04303988069295883, 0.13797342777252197, -0.23924775421619415, 0.19700345396995544, 0.13467536866664886, -0.14825326204299927, 0.3352500796318054, -0.26585647463798523, 0.27365511655807495, -0.1467328518629074, -0.23587113618850708], [0.1418585479259491, 0.4138714671134949, -0.26400038599967957, -0.41612881422042847, -0.03590736165642738, -0.16739720106124878, -0.13769936561584473, -0.08776114135980606, 0.07413695752620697, -0.01820378564298153, 0.16834621131420135, 0.15582656860351562, 0.21308906376361847], [-0.09297871589660645, 0.15236639976501465, -0.09450025111436844, 0.020242702215909958, -0.2407931089401245, -0.0680629089474678, -0.20673149824142456, -0.25727513432502747, -0.17817403376102448, 0.052032146602869034, -0.052406907081604004, 0.029127292335033417, 0.21597416698932648], [-0.2462831735610962, 0.2707071006298065, -0.2251584380865097, -0.06616492569446564, 0.1681256741285324, -0.09074395149946213, 0.0630856454372406, 0.17221619188785553, -0.18910285830497742, 0.22565898299217224, -0.246609166264534, 0.10314793139696121, -0.0814129114151001], [-0.27992501854896545, -0.2626764476299286, 0.13021311163902283, -0.164542555809021, 0.26130393147468567, -0.22168265283107758, 0.024511244148015976, -0.12929752469062805, -0.04755984991788864, 0.1170065775513649, 0.055865298956632614, 0.16646325588226318, -0.08803611993789673], [0.027019787579774857, 0.287634938955307, 0.16607566177845, -0.14524437487125397, 0.1676756590604782, -0.0468570813536644, -0.23366710543632507, -0.18695849180221558, 0.04230230674147606, -0.013703575357794762, 0.22627122700214386, 0.15611900389194489, 0.09191329032182693], [-0.2025412619113922, -0.3973695933818817, -0.0574025921523571, -0.05456877127289772, -0.2681101858615875, 0.22797508537769318, -0.12693682312965393, 0.28521832823753357, 0.1335289180278778, 0.10189890116453171, -0.21266265213489532, 0.009288989007472992, -0.035750240087509155]], "encoder.network.0.bias": [-0.16012965142726898, 0.2305009365081787, -0.1357724815607071, -0.2808205783367157, -0.055269237607717514, -0.2091457098722458, 0.05722983926534653, -0.2714351713657379, 0.09671030938625336, -0.31782764196395874, 0.23335081338882446, -0.012951774522662163, -0.17787796258926392, -0.23018266260623932, -0.3904772102832794, -0.07093314081430435, -0.01855144277215004, 0.09479625523090363, 0.26802971959114075, -0.21726539731025696, 0.27731573581695557, 0.16235177218914032, -0.049538999795913696, 0.17478999495506287, -0.18754252791404724, 0.3627719581127167, 0.31078624725341797, -0.10878927260637283, -0.0589703693985939, 0.28572583198547363, 0.034610096365213394, 0.42175742983818054, 0.33349305391311646, -0.13784021139144897, -0.3323266804218292, -0.4399777948856354, -0.2728367745876312, 0.3452434837818146, 0.3428192734718323, 0.401762992143631, 0.10516075789928436, 0.09900513291358948, -0.009580247104167938, -0.25273531675338745, 0.3417728543281555, -0.12238939851522446, -0.26920899748802185, -0.20538805425167084, 0.4440242648124695, 0.2854467034339905, 0.010580428875982761, -0.26558443903923035, -0.2779003977775574, -0.09719608724117279, -0.2816523015499115, -0.1437188982963562, -0.301392138004303, -0.23895195126533508, 0.1899665892124176, 0.010582158342003822, 0.016426585614681244, -0.04941900074481964, -0.02612011693418026, -0.23307400941848755, -0.1813155859708786, -0.1401599943637848, -0.27532893419265747, -0.39877375960350037, -0.2907440662384033, -0.42055514454841614, -0.45638561248779297, -0.19885112345218658, 0.4595160186290741, 0.13243862986564636, 0.21178308129310608, -0.31809428334236145, 0.328569620847702, -0.36310797929763794, -0.29071441292762756, -0.09010417014360428, -0.27613839507102966, -0.033306580036878586, -0.3486693799495697, 0.2508144974708557, -0.11553143709897995, 0.3659088611602783, -0.4033312201499939, -0.358508825302124, -0.32546907663345337, 0.034699730575084686, 0.2863137125968933, -0.29909852147102356, -0.26304271817207336, -0.2766011655330658, -0.21520419418811798, 0.07335105538368225, -0.2559511363506317, 0.17031773924827576, -0.0406600758433342, -0.2559841573238373, 0.28597280383110046, -0.2961600422859192, 0.2225954830646515, -0.11322224140167236, 0.39779937267303467, -0.0694306269288063, 0.16439136862754822, 0.06408870220184326, -0.16420277953147888, -0.416932612657547, 0.1407119780778885, 0.41700419783592224, -0.143395334482193, -0.22107109427452087, 0.0706622302532196, 0.11691074818372726, -0.4021033048629761, -0.22800983488559723, -0.16450370848178864, -0.1571694016456604, -0.23623815178871155, -0.21460415422916412, -0.22972838580608368, 0.02423209510743618, 0.002138203475624323, -0.25449874997138977, -0.2162810117006302, -0.36468201875686646, -0.30882638692855835, -0.029889779165387154, 0.38326889276504517, 0.09700407832860947, -0.29229697585105896, -0.19059006869792938, -0.10290858149528503, -0.09706202149391174, -0.28018975257873535, -0.41251763701438904, -0.0023689267691224813, -0.3870173990726471, -0.2490815669298172, 0.10929915308952332, -0.20732305943965912, 0.22976157069206238, -0.2601289451122284, 0.14018729329109192, 0.2726384401321411, -0.3656904697418213, -0.20769622921943665, -0.265641450881958, 0.14238819479942322, 0.06956475228071213, 0.21939630806446075, 0.05388101562857628, -0.1976998746395111, -0.007675506174564362, -0.3358309864997864, -0.05833688750863075, -0.19963538646697998, 0.01187051273882389, -0.39966627955436707, -0.16503174602985382, 0.040886957198381424, 0.2080676257610321, 0.2778586447238922, -0.2973904311656952, -0.40452906489372253, -0.24438510835170746, -0.1950768530368805, -0.17847542464733124, 0.1354246437549591, 0.21105998754501343, 0.06140358746051788, 0.07650943845510483, -0.2647452652454376, 0.030256710946559906, 0.07795923203229904, -0.16631589829921722, 0.14429904520511627, -0.0111318938434124, -0.15060798823833466, -0.014700229279696941, -0.21633680164813995, -0.39941421151161194, 0.2526881694793701, 0.25529545545578003, -0.19902490079402924, -0.10839617252349854, 0.13045093417167664, -0.06726854294538498, -0.3065313696861267, -0.21275992691516876, -0.3047701418399811, -0.0859464555978775, 0.012294630520045757, -0.3985849916934967, -0.2961854040622711, -0.25684958696365356, 0.06202965974807739, 0.022300705313682556, -0.09665101766586304, 0.4979757070541382, 0.2321523278951645, 0.24334542453289032, 0.48716023564338684, -0.15868830680847168, -0.13745099306106567, 0.1722601354122162, 0.20900216698646545, -0.12809860706329346, -0.004932957701385021, 0.0795828104019165, -0.2038073092699051, 0.15740811824798584, 0.2659222483634949, 0.0587405264377594, -0.12140882015228271, -0.310016393661499, -0.42148369550704956, 0.13203896582126617, 0.12325870990753174, -0.14617189764976501, -0.43543538451194763, -0.05402190238237381, 0.15401007235050201, 0.1768360584974289, -0.13412465155124664, 0.12735724449157715, 0.09092913568019867, 0.03836621344089508, -0.002941576996818185, 0.24729156494140625, 0.22008252143859863, 0.030463915318250656, 0.041629645973443985, -0.37667879462242126, 0.4130803048610687, -0.11949089169502258, 0.09802131354808807, -0.3709857165813446, -0.3441148102283478, 0.28040045499801636, -0.4831288158893585, -0.11488069593906403, -0.2904585003852844, -0.2797897458076477, -0.24666957557201385, -0.09299397468566895, 0.05469318851828575, -0.2533077597618103, -0.0890546441078186, 0.23956526815891266, 0.0693860873579979, -0.09547683596611023, 0.10894715785980225, -0.051495034247636795], "encoder.network.2.weight": [[-0.027770308777689934, 0.12356732040643692, 0.011070498265326023, -0.0670328289270401, -0.011850514449179173, -0.13150955736637115, 0.004296500701457262, 0.05427700653672218, 0.074960857629776, -0.06324446201324463, 0.05377915874123573, 0.01899551972746849, 0.007929551415145397, -0.11170860379934311, -0.11937317252159119, 0.0016857604496181011, 0.009632356464862823, -0.043982915580272675, -0.08905164152383804, -0.1523941457271576, 0.13182280957698822, 0.06248532235622406, -0.09915345162153244, -0.017208347097039223, -0.10520577430725098, 0.09545229375362396, 0.05941260606050491, 0.013471896760165691, -0.07764773815870285, 0.08619670569896698, 0.003593056695535779, 0.051939088851213455, -0.06972750276327133, 0.03933551162481308, -0.19497337937355042, 0.00845041498541832, 0.026257408782839775, -0.03950675204396248, 0.001111572957597673, 0.12203618139028549, -0.09883454442024231, 0.06510208547115326, -0.03016103059053421, -0.023878492414951324, -0.002394132548943162, 0.05781226605176926, 0.056603625416755676, 0.05755867809057236, 0.02383633330464363, -0.03774360194802284, -0.0030789095908403397, 0.00103003962431103, -0.047528594732284546, -0.057152193039655685, 0.07346316426992416, -0.03379487991333008, -0.13665436208248138, -0.1452428549528122, -0.028283391147851944, 0.08486761152744293, 0.109715037047863, -0.0923362746834755, 0.03354402258992195, -0.20951594412326813, 0.034776560962200165, -0.010060888715088367, 0.034340836107730865, 0.16232047975063324, 0.07377032190561295, -0.027405617758631706, -0.29695096611976624, 0.01836310885846615, 0.01902046799659729, 0.0360596589744091, 0.014686442911624908, -0.18842542171478271, 0.2043740153312683, 0.006181026808917522, -0.002582862274721265, 0.007561434525996447, 0.02448984794318676, 0.032106395810842514, -0.10114175081253052, 0.01566561497747898, 0.15251189470291138, 0.125645250082016, -0.0015294947661459446, -0.05702110007405281, 0.0412350632250309, 0.04315093904733658, 0.1689782440662384, -0.1740919053554535, -0.026051504537463188, -0.1045534759759903, -0.12647363543510437, 0.04864640161395073, -0.13544173538684845, -0.03146028891205788, 0.037326253950595856, 0.05526002496480942, 0.08815280348062515, -0.5873863697052002, 0.026625311002135277, -0.051164574921131134, 0.05925966799259186, -0.020027296617627144, -0.027039790526032448, 0.0033375404309481382, -0.009389698505401611, -0.11745371669530869, -0.06013615056872368, 0.0488976426422596, 0.022508766502141953, -0.007806945126503706, -0.041130274534225464, -0.1037469282746315, 0.03371671959757805, -0.12104951590299606, -0.01597326435148716, -0.2575719356536865, -0.14217783510684967, -0.11070913076400757, -0.1967007964849472, 0.07979327440261841, -0.018028441816568375, -0.14378739893436432, -0.007384759373962879, -0.03391734138131142, -0.08679700642824173, -0.10570212453603745, 0.11426082998514175, -0.08381259441375732, 0.09473922848701477, -0.04938109219074249, -0.16704420745372772, 0.03312182053923607, -0.0025807342026382685, -0.1948879510164261, -0.09721342474222183, -0.031782690435647964, -0.18295517563819885, -0.041535936295986176, -0.0626167431473732, 0.07812216132879257, -0.11626310646533966, -0.0009264688706025481, 0.05206555873155594, -0.01754019781947136, -0.007064316887408495, -0.17829212546348572, 0.07622669637203217, -0.07632943987846375, 0.083556167781353, 0.07580333203077316, -0.15580828487873077, 0.019648002460598946, -0.1831716150045395, 0.03734155371785164, -0.030604220926761627, -0.041659627109766006, -0.23080064356327057, -0.028521224856376648, 0.0743231400847435, 0.04300219193100929, -0.03526154160499573, -0.11080991476774216, -0.07444782555103302, 0.05210293456912041, -0.018954124301671982, 0.08885625749826431, 0.0020684325136244297, 0.021884407848119736, 0.13943138718605042, 0.018460478633642197, 0.010576588101685047, 0.03697553649544716, -0.02715902402997017, -0.03500090166926384, 0.00337181705981493, 0.0659887045621872, -0.17695166170597076, -0.027099767699837685, -0.1460510492324829, 0.06814853101968765, 0.06618349999189377, -0.058056555688381195, -0.12272917479276657, -0.08306816965341568, 0.1318453699350357, 0.047456417232751846, -0.3474051356315613, -0.051569532603025436, -0.04309526085853577, 0.05214748531579971, -0.02862406149506569, -0.009887839667499065, 0.008384578861296177, -0.045486122369766235, -0.03015929087996483, -0.10444928705692291, -0.07165861129760742, 0.061039820313453674, 0.1254144310951233, 0.08721873909235, -0.012839585542678833, -0.22779656946659088, 0.04455513134598732, -0.08819971978664398, 0.09629440307617188, 0.05087082460522652, 0.027239559218287468, -0.01713881455361843, -0.06576498597860336, -0.0022941548377275467, 0.06635847687721252, 0.006448590196669102, -0.034402258694171906, -0.0890856608748436, 0.03024931252002716, 0.008240832947194576, 0.10947857052087784, -0.036184124648571014, -0.17376002669334412, 0.02185625396668911, 0.06408633291721344, 0.054506849497556686, -0.034268569201231, 0.15714989602565765, 0.08318009972572327, -0.03873349353671074, -0.025170188397169113, -0.015936229377985, -0.12022607028484344, -0.014751318842172623, -0.04705558717250824, -0.03338247910141945, 0.10115315020084381, -0.04470425099134445, -0.014181860722601414, -0.0060877008363604546, -0.17037096619606018, -0.010776869021356106, 0.062409382313489914, -0.09894789755344391, -0.16714143753051758, -0.0049484726041555405, -0.012240581214427948, -0.02735006809234619, 0.07432342320680618, -0.13372725248336792, -0.13655467331409454, 0.03527460992336273, 0.09287343919277191, -0.04623774439096451, 0.10483802109956741, -0.05835484340786934], [0.024876611307263374, 0.011028168722987175, -0.02147180587053299, 0.035682905465364456, -0.07404980808496475, -0.01262129656970501, 0.0015527503564953804, 0.03749821335077286, -0.005656092427670956, -0.03335244581103325, -0.06563835591077805, -0.020687690004706383, 0.04295922443270683, -0.05190274119377136, 0.01115460880100727, -0.01508453581482172, 0.024013228714466095, -0.04555639624595642, 0.02952570840716362, -0.02076367847621441, 0.023867247626185417, -0.011136278510093689, -0.06978955119848251, -0.043786633759737015, -0.018082521855831146, 0.011368381790816784, -0.02892175503075123, 0.0213172510266304, 0.03183404356241226, -0.061098672449588776, -0.039893604815006256, -0.028319479897618294, 0.023215273395180702, 0.015904279425740242, 0.004020916763693094, -0.037719182670116425, 0.024081023409962654, 0.006784745492041111, -0.035380780696868896, -0.049448270350694656, 0.03896171972155571, 0.0335523784160614, 0.04289882630109787, -0.016509823501110077, -0.019764136523008347, -0.031941305845975876, -0.05126369372010231, -0.055736519396305084, -0.046129412949085236, -0.03732546418905258, 0.03434985131025314, -0.04575159028172493, 0.04691779240965843, -0.03246684744954109, 0.03278523311018944, -0.04539687931537628, -0.06559953093528748, -0.0518457293510437, 0.043542806059122086, 0.002253004116937518, -0.027295377105474472, -0.06490477174520493, -0.06355597823858261, -0.06452447175979614, 0.0012963616754859686, -0.06210185959935188, 0.008873531594872475, 0.01605388894677162, -0.03937596455216408, -0.019190484657883644, 0.054642800241708755, -0.061984241008758545, 0.013752573169767857, -0.047137122601270676, 0.01702498272061348, 0.014114398509263992, -0.030348950996994972, 0.03238903358578682, 0.022112734615802765, 0.01612004265189171, -0.05120641365647316, -0.0036517700646072626, -0.012019838206470013, -0.012449867092072964, 0.01682024449110031, -0.035401590168476105, 0.02780328504741192, -0.05344625189900398, 0.0023245762567967176, 0.02450103871524334, 0.03979743644595146, -0.0034538377076387405, 0.03845030814409256, 0.015357229858636856, 0.017966989427804947, -0.034323178231716156, 0.04007771983742714, 0.027263477444648743, 0.01750914938747883, -0.04456937313079834, -0.065071702003479, 0.05708547309041023, 0.02243713289499283, 0.0005185559275560081, 0.0026391323190182447, -0.023897886276245117, 0.0015710641164332628, -0.05750070512294769, -0.018408281728625298, 0.013762213289737701, -0.021028494462370872, 0.022505834698677063, -0.04149790480732918, -0.03791514039039612, 0.03991389274597168, 0.015956182032823563, -0.06897147744894028, -0.06935393065214157, -0.06484159082174301, 0.04797663167119026, 0.017922956496477127, -0.02343815006315708, -0.055923350155353546, -0.024137254804372787, -0.04346824437379837, -0.06685127317905426, 0.02637309953570366, -0.04706495255231857, -0.05796216055750847, -0.04778708517551422, -0.06571850925683975, -0.06436553597450256, -0.030905582010746002, -0.05162270367145538, -0.05365961417555809, -0.027057265862822533, 0.05392175540328026, -0.051544491201639175, -0.06343691796064377, -0.04340554401278496, 0.03468809276819229, -0.010253929533064365, -0.004030533134937286, -0.019786491990089417, -0.008231372572481632, 0.03433733433485031, 0.012702819891273975, -0.025117091834545135, 0.03314419090747833, 0.0019370615482330322, -0.024813411757349968, -0.02837906777858734, -0.042979877442121506, -0.05284833163022995, -0.004923508036881685, 0.001676007523201406, -0.07026262581348419, -0.007559726946055889, 0.00027748168213292956, 0.013508372940123081, 0.0420963391661644, 0.04203295707702637, -0.024818681180477142, 0.025996224954724312, -0.021451245993375778, -0.03483256697654724, 0.027010956779122353, 0.04740919917821884, 0.03706441447138786, 0.026668833568692207, -0.03655366972088814, -0.06745777279138565, -0.06838349252939224, 0.05182826146483421, 0.04317473620176315, -0.03531742841005325, 0.004193385597318411, -0.026617612689733505, 0.012026732787489891, 0.03811023756861687, -0.02411087043583393, 0.036099448800086975, -0.07219425588846207, -0.03008323907852173, 0.003907574340701103, 0.0005302040372043848, -0.05368996039032936, -0.03645291179418564, -0.055403389036655426, 0.04363253712654114, -0.003549305722117424, 0.03714932128787041, 0.014075062237679958, -0.05008832365274429, 0.010605040937662125, -0.0318831168115139, 0.011550565250217915, -0.055519212037324905, -0.04135695844888687, -0.02621675282716751, -0.07489746809005737, -0.040161360055208206, -0.02333502657711506, -0.018536914139986038, -0.06782029569149017, -0.011401432566344738, 0.041856713593006134, 0.05426536872982979, 0.004793485160917044, -0.010610596276819706, -0.048505742102861404, -0.0015717358328402042, -0.0117116067558527, -0.03893224149942398, -0.04895114526152611, -0.06433466076850891, -0.04862714186310768, 0.007986364886164665, 0.020967470481991768, -0.06914054602384567, -0.06455598771572113, 0.026535527780652046, 0.0004284754686523229, -0.0026685064658522606, 0.03149164840579033, 0.016373729333281517, -0.01256034430116415, 0.027064941823482513, -0.027728095650672913, -0.07666011899709702, -0.029309261590242386, -0.05414995551109314, -0.06412660330533981, 0.04213619604706764, -0.05977710708975792, 0.043575089424848557, 0.030407695099711418, -0.004270673263818026, 0.038265373557806015, -0.03283420577645302, 0.05831326171755791, 0.02654862403869629, 0.044020019471645355, -0.011692709289491177, -0.03752056509256363, 0.02168179675936699, 0.01599164493381977, 0.005378859583288431, 0.02661271020770073, -0.005822132807224989, 0.011910560540854931, 0.03150293231010437, -0.044266801327466965, 0.026096824556589127, -0.06652335077524185, -0.0020777108147740364], [-0.09591322392225266, 0.04818423464894295, 0.030636845156550407, 0.05061342939734459, -0.0019400271121412516, 0.00538348825648427, 0.06274905800819397, -0.07637131959199905, 0.003874182002618909, -0.03658047318458557, -0.01266679260879755, 0.07966835051774979, 0.014154129661619663, -0.001498423283919692, 0.07074249535799026, -0.04546504095196724, 0.0055989474058151245, -0.001006525824777782, 0.09804417937994003, 0.0011070887558162212, 0.05661237612366676, -0.004610069561749697, 0.11033791303634644, 0.08053255081176758, -0.09903539717197418, 0.10706271976232529, 0.015429174527525902, 0.04967498779296875, 0.0038198642432689667, 0.008079747669398785, -0.010678727179765701, -0.017108973115682602, 0.06741148978471756, 0.03580329194664955, 0.03381854668259621, -0.06286638230085373, 0.11487980931997299, -0.0739850401878357, 0.03642052039504051, -0.044467993080616, -0.1303354948759079, 0.0809977799654007, 0.02524777129292488, 0.08313846588134766, -0.036885205656290054, -0.015020535327494144, 0.0026320202741771936, 0.08153154700994492, -0.06382738798856735, 0.04901197552680969, -0.0821710154414177, -0.12988199293613434, -0.010900793597102165, -0.0991714671254158, -0.010034007951617241, -0.08970600366592407, 0.13170038163661957, 0.008030179888010025, 0.05052463337779045, 0.003934345208108425, -0.028592733666300774, -0.03900030255317688, 0.06600923091173172, -0.05796058475971222, 0.0471552237868309, -0.058182839304208755, -0.04507674649357796, 0.040229372680187225, -0.018146270886063576, 0.029298244044184685, 0.004608778282999992, -0.04606463015079498, -0.05806926637887955, 0.0690271258354187, -0.04391136020421982, -0.08419681340456009, 0.048604805022478104, 0.0978861004114151, 0.11567872017621994, 0.013041592203080654, -0.009491951204836369, 0.02683883346617222, -0.06745545566082001, 0.046567242592573166, 0.10646723955869675, 0.04323217645287514, 0.02630624920129776, 0.03958626464009285, 0.08268919587135315, -0.014190100133419037, 0.09454693645238876, -0.08876578509807587, -0.20847469568252563, -0.08061400055885315, -0.10422325879335403, -0.06113522872328758, 0.02614884451031685, 0.02554938569664955, -0.00850303377956152, 0.07155491411685944, -0.05983348935842514, -0.0328417532145977, 0.0485580638051033, 0.08597350865602493, 0.00824503879994154, -0.08790323138237, 0.024093423038721085, 0.09384220838546753, 0.021015064790844917, -0.08710096776485443, -0.02839202806353569, 0.06389365345239639, 0.02593538910150528, 0.0010098554193973541, 0.057027947157621384, -0.022615941241383553, 0.1487826704978943, -0.026721902191638947, 0.0893334448337555, -0.04590018093585968, -0.12343691289424896, -0.13601064682006836, 0.01768486574292183, 0.08162744343280792, 0.011636822484433651, -0.10578379780054092, 0.01728064939379692, 0.2418636679649353, -0.11306797713041306, -0.08521399646997452, 0.09296751022338867, -0.01302905473858118, -0.05776659771800041, -0.0858142226934433, 0.015945419669151306, -0.11611564457416534, 0.10389482229948044, -0.10127343237400055, -0.034888364374637604, -0.0021770792081952095, -0.02429480291903019, -0.034267909824848175, 0.007282252423465252, 0.11131573468446732, -0.044910579919815063, 0.09173602610826492, 0.051988329738378525, -0.060915201902389526, 0.06490695476531982, -0.0030686953105032444, -0.09038268029689789, -0.08376989513635635, 0.04656333103775978, -0.030963458120822906, -0.16627004742622375, -0.13114529848098755, -0.11381249129772186, 0.01387050561606884, 0.02574971690773964, -0.03998613730072975, -0.26950305700302124, -0.027150867506861687, 0.0678408220410347, 0.004940201994031668, -0.04243900254368782, -0.015970123931765556, 0.011358417570590973, 0.014409949071705341, -0.10935746133327484, 0.0745634213089943, 0.07771781831979752, -0.005571591667830944, 0.026864085346460342, -0.04874938353896141, -0.05714370310306549, -0.07586042582988739, 0.071567103266716, -0.03957213833928108, -0.08458028733730316, 0.01656266860663891, 0.022534670308232307, 0.03740384429693222, -0.0970020443201065, 0.05796656757593155, -0.05753488093614578, 0.051791079342365265, -0.044940728694200516, -0.009543357416987419, -0.06103646382689476, 0.02862546220421791, -0.052695415914058685, -0.04976535215973854, -0.024717094376683235, 0.03899107128381729, -0.03993877023458481, 0.06506501138210297, -0.030596960335969925, -0.057166509330272675, 0.024677567183971405, 0.07108015567064285, 0.0395897775888443, -0.02774651162326336, 0.0005795064498670399, 0.03622550144791603, -0.022814849391579628, -0.1391250640153885, -0.012583503499627113, 0.12172261625528336, 0.023721255362033844, 0.11424722522497177, 0.017049262300133705, -0.10779818147420883, 0.03983493149280548, -0.07374972850084305, -0.05843067541718483, -0.04248508810997009, -0.07717376947402954, -0.04441067948937416, 0.020456504076719284, -0.0114350076764822, 0.00487830676138401, 0.04746907949447632, -0.14260424673557281, 0.036979254335165024, 0.023698734119534492, 0.04929007217288017, 0.045985832810401917, 0.04724786803126335, -0.041134655475616455, -0.012560172937810421, 0.10382623225450516, 0.01323725376278162, 0.09156465530395508, -0.07361630350351334, 0.017491046339273453, -0.08184099942445755, 0.062167003750801086, -0.05507087707519531, 0.01338634267449379, 0.03598303347826004, -0.036189544945955276, 0.05833273008465767, -0.05077507719397545, 0.004652534611523151, -0.05854975804686546, 0.010026665404438972, 0.0997067391872406, -0.04879726842045784, -0.03428313136100769, -0.154403954744339, -0.13767318427562714, -0.0337628573179245, 0.1131126657128334, 0.0678158774971962, 0.01817292720079422, 0.04548834636807442], [-0.024023767560720444, -0.02831258624792099, 0.000147639075294137, -0.015497303567826748, -0.007118404842913151, -0.0011672722175717354, -0.051840100437402725, 0.014886395074427128, -0.053699932992458344, 0.02596009336411953, -0.006605593953281641, 0.041695691645145416, -0.053879644721746445, 0.002750270301476121, -0.01225187722593546, 0.009079658426344395, 0.014602560549974442, 0.0024266273248940706, -0.050765134394168854, -0.047495078295469284, -0.06736193597316742, 8.86456182342954e-05, 0.025284454226493835, -0.012865192256867886, -0.009464530274271965, 0.04215363413095474, -0.05269066244363785, -0.06580950319766998, 0.02858176827430725, -0.006067528389394283, 0.028210517019033432, 0.026807576417922974, -0.02471078746020794, 0.01927175186574459, -0.03299358859658241, 0.021187877282500267, 0.047819964587688446, -0.045026034116744995, -0.005463269539177418, -0.06401072442531586, -0.04231690615415573, 0.001054116990417242, -0.05910459905862808, 0.0036631394177675247, -0.005791299976408482, 0.005943404044955969, 0.018594903871417046, -0.050144072622060776, -0.05616449564695358, -0.004146087449043989, -0.050862137228250504, -0.038556117564439774, -0.0007493299781344831, -0.059854719787836075, -0.012327131815254688, 0.006331694312393665, -0.0455004908144474, -0.022142942994832993, -0.030535869300365448, -0.056532107293605804, -0.043688297271728516, 0.030205946415662766, 0.009905378334224224, -0.0007079727947711945, -0.05153806135058403, -0.05644054338335991, 0.014798728749155998, 0.006767676677554846, 0.007618551142513752, -0.05003619194030762, 0.05703254044055939, 0.029659252613782883, 0.00765126571059227, -0.006722860969603062, 0.008762659505009651, 0.05860719457268715, 0.011867647990584373, 0.04233149439096451, -0.015309090726077557, -0.008591623976826668, 0.04354032129049301, -0.0014264298370108008, 0.043456193059682846, -0.010583129711449146, -0.05260758474469185, -0.021542932838201523, -0.01362581830471754, -0.06421688199043274, -0.05270525440573692, -0.04643689841032028, -0.06418099999427795, -0.06440627574920654, 0.005644811317324638, 0.01683441363275051, -0.04203411936759949, -0.010414313524961472, -0.01882324367761612, 0.02811446785926819, -0.03230743110179901, 0.03377149999141693, 0.00823801476508379, -0.022011304274201393, -0.010159152559936047, 0.03354782611131668, -0.03850753232836723, 0.008870718069374561, -0.03391553461551666, 0.04324033856391907, -0.0036475814413279295, -0.013555803336203098, 0.043276768177747726, 0.013814965263009071, -0.010868010111153126, -0.04877019673585892, -0.027876563370227814, -0.03205324336886406, -0.06136324629187584, 0.02121635340154171, -0.07104029506444931, 0.022103989496827126, -0.010778396390378475, 0.0314696803689003, -0.06725619733333588, 0.01888222061097622, 0.0528029128909111, -0.011908616870641708, -0.04564225301146507, -0.026225587353110313, -0.03636865317821503, 0.035322725772857666, -0.0495140515267849, 0.022847985848784447, 0.049159832298755646, -0.007388284429907799, -0.02899198606610298, -0.06091630086302757, 0.03884514048695564, 0.008331341668963432, 0.017974503338336945, -0.025510961189866066, -0.06496911495923996, -0.0500212237238884, -0.05695386976003647, -0.05055994912981987, -0.03745300695300102, -0.03152533993124962, -0.06266729533672333, 0.0027420648839324713, -0.008950126357376575, 0.0344434417784214, 0.04383713752031326, -0.054845958948135376, -0.06850636750459671, 0.04548575356602669, 0.03324471786618233, 0.0491315983235836, 0.049531448632478714, -0.012517540715634823, 0.03916511684656143, -0.0313439778983593, -0.05173097178339958, 0.0094083147123456, -0.06152490898966789, -0.018516022711992264, -0.0025449928361922503, -0.03829209506511688, -0.018434099853038788, -0.008313060738146305, -0.060722287744283676, 0.009462172165513039, 0.0323389433324337, 0.017107730731368065, 0.006156835705041885, -0.05093931034207344, -0.04782328009605408, 0.012265668250620365, -0.009168240241706371, -0.04540002718567848, 0.038167063146829605, 0.033220089972019196, 0.019432393833994865, -0.022500284016132355, 0.05161774531006813, -0.002879304112866521, 0.013436302542686462, 0.024061603471636772, 0.035738520324230194, -0.0360599048435688, -0.024572227150201797, -0.032732825726270676, 0.05654444545507431, 0.01269559282809496, -0.04407564178109169, -0.016190454363822937, 0.0228270273655653, 0.04285284876823425, 0.04366205260157585, -0.04033353179693222, -0.03726300224661827, 0.03072802908718586, -0.0024262149818241596, -0.038598474115133286, -0.06715058535337448, -0.04764857888221741, 0.048732005059719086, -0.0016967327101156116, -0.035066112875938416, 0.002051114570349455, -0.007599017582833767, -0.015322097577154636, 0.025278788059949875, -0.0620819516479969, 0.039443790912628174, -0.06949446350336075, 0.01562589220702648, 0.05166473239660263, 0.043027378618717194, 0.019755404442548752, 0.027368314564228058, -0.048789262771606445, -0.060475561767816544, -0.04257921874523163, -0.031658902764320374, 0.005496486555784941, 0.043788790702819824, -0.049004361033439636, -0.0015124096535146236, -0.04940498247742653, -0.053601447492837906, -0.009901875630021095, -0.04695519804954529, 0.053910136222839355, 0.028212735429406166, -0.04465106129646301, 0.014887386932969093, -0.04470260441303253, 0.028861071914434433, -0.045934271067380905, -0.0442153625190258, -0.025163767859339714, 0.05093005299568176, -0.04397309571504593, -0.014608996920287609, -0.030392352491617203, -0.02628374472260475, -0.04611733928322792, 0.0132669135928154, -0.0026808669790625572, -0.06999997794628143, -0.009396820329129696, -0.018757956102490425, -0.0047945501282811165, 0.016335248947143555, 0.03178781270980835, -0.06569566577672958, -0.010721945203840733], [0.01729005016386509, 0.007489354815334082, 0.032481059432029724, -0.008026264607906342, 0.03896011412143707, -0.02363365888595581, -0.07090217620134354, 0.01888248138129711, 0.008464007638394833, -0.08619145303964615, 